%E6%9D%B1%E3%82%A2%E3%82%B8%E3%82%A2,-0.171902,-1.44632,0.17454,0.450363,0.518057,-2.32201,0.657683,1.29443,0.601297,0.197451,-1.60591,0.309269,0.334094,-2.64359,0.327351,0.874544,0.989432,0.0629151,0.578131,0.187921,0.229143,-0.813312,1.19577,0.378585,-1.31302,-0.327462,-1.46056,-0.138059,-0.730033,1.47895,1.69429,0.564584,-1.5528,-1.1158,0.402086,-1.49666,1.06776,-0.348755,1.16121,-0.682651,1.17329,0.482713,-1.36008,2.90646,1.35358,-1.06139,-2.37014,-0.280458,-0.58053,-1.26059
%E7%B5%B1%E5%90%88%E8%BB%8D_(%E3%82%A2%E3%83%A1%E3%83%AA%E3%82%AB%E8%BB%8D),-0.0994429,-1.4665,0.103791,0.585095,0.439391,-1.69054,0.476567,0.975399,0.728237,-0.0443085,-1.36196,0.525641,0.530609,-2.51784,0.184309,0.776208,0.739959,-0.38887,0.414698,-0.0497992,0.353363,-0.78199,0.699337,0.437474,-1.2631,0.22998,-1.21199,0.08296,-0.776908,1.72615,1.52426,0.495172,-1.12302,-1.34954,0.202847,-0.937947,1.22436,-0.209101,1.0797,-0.354179,0.89309,0.175926,-1.07807,2.38277,1.24123,-1.04909,-2.66213,-0.504083,-0.516444,-0.965212
%E3%83%9B%E3%83%BC%E3%83%A0%E3%83%9A%E3%83%BC%E3%82%B8%E3%83%AA%E3%83%BC%E3%83%80%E3%83%BC,-0.115866,-1.35403,0.170087,0.437917,0.544703,-1.93697,0.564673,1.37426,0.845368,0.102586,-1.34491,0.429509,0.336764,-2.7126,0.341493,0.700675,0.812944,-0.377213,0.657873,0.0656492,0.406342,-0.684858,0.996122,0.300084,-1.08831,-0.0410882,-1.47777,0.14639,-0.817573,1.63393,1.57693,0.723267,-1.05143,-1.25853,0.211519,-1.19544,1.26315,-0.369094,1.02674,-0.544269,1.06166,0.0695288,-1.22796,2.47511,1.29892,-0.945056,-2.63137,-0.626488,-0.425877,-1.12631
%C5%A0,0.209532,-1.27609,-0.0362744,0.311539,0.764066,-1.78458,0.723268,1.04629,0.917797,0.102576,-1.13866,0.276537,0.473575,-2.93919,0.374674,0.745112,0.957598,-0.721552,0.912602,0.0466341,0.549798,-0.614849,0.882282,0.23429,-0.857722,0.0659833,-1.56618,-0.0667826,-0.99991,1.65368,1.93799,0.508176,-1.06503,-1.32472,0.19967,-0.933065,1.35772,-0.0243615,1.1846,-0.288887,0.880628,0.0831426,-1.10727,2.35743,1.12161,-0.84933,-2.83436,-0.783068,-0.427362,-0.969642
%E3%83%9B%E3%83%83%E3%83%88%E3%83%89%E3%83%83%E3%82%B0,-0.224414,-1.37517,0.443818,0.490786,0.300353,-2.25725,0.574894,1.51311,0.823909,0.258485,-1.40466,0.326415,0.428851,-2.63469,0.427485,0.882459,0.768113,-0.256358,0.738452,0.111167,0.295219,-0.708686,1.10499,0.447046,-0.976817,-0.138778,-1.39345,0.122057,-0.796096,1.66457,1.51445,0.762902,-1.18129,-1.38678,0.242152,-1.34763,1.13973,-0.365156,1.00489,-0.62273,1.00021,0.116931,-1.31295,2.66141,1.45596,-1.19582,-2.65423,-0.541633,-0.479824,-1.08039
%C4%B9,-0.280945,-1.33744,0.0336637,0.146943,0.862054,-2.24157,0.751929,1.01546,0.639997,0.158185,-1.20819,0.330519,0.346163,-3.13898,0.444246,0.812697,1.24425,-0.225101,0.72299,0.081497,0.562746,-0.514062,1.20722,0.383227,-1.2703,-0.205217,-1.8265,0.0358914,-1.03693,1.34025,2.09705,0.402738,-1.39493,-1.25653,0.520036,-1.40895,1.48613,-0.159419,1.14957,-0.552408,1.10432,0.376881,-1.25998,2.80836,1.2994,-0.926813,-2.61831,-0.429641,-0.487161,-1.26299
%E3%83%8D%E3%83%BC%E3%83%87%E3%83%AB%E3%83%A9%E3%83%B3%E3%83%88%E9%80%A3%E9%82%A6%E5%85%B1%E5%92%8C%E5%9B%BD,-0.119896,-1.326,0.0938264,0.431338,0.605366,-2.12854,0.601887,1.15082,0.990398,0.162137,-1.29356,0.113003,0.496156,-3.03897,0.40365,0.737556,0.735315,-0.493612,0.905638,-0.00801355,0.438905,-0.501756,0.835196,0.455461,-1.16869,0.0289822,-1.36168,0.24401,-0.934623,1.92493,1.44761,0.612219,-0.844086,-1.44591,0.0205636,-1.19916,1.34505,-0.0130957,1.28899,-0.478058,0.760314,0.00131619,-1.13785,2.39366,1.30634,-1.1796,-2.91139,-0.694702,-0.586876,-1.11668
%E4%B8%AD%E5%A4%AE%E9%9B%86%E6%A8%A9,-0.249346,-1.65212,0.195163,0.563564,0.44385,-1.7919,0.53959,1.28899,0.462027,0.101074,-1.38388,0.801184,0.1466,-2.40396,0.207382,0.772404,1.00057,-0.0486497,0.242078,0.200763,0.308668,-0.863924,1.03307,0.408384,-1.082,-0.223476,-1.48393,-0.140555,-0.563571,1.14926,1.42486,0.624456,-1.26021,-1.10032,0.759829,-1.18492,0.705465,-0.600147,0.715346,-0.49653,1.20285,0.399256,-1.64957,2.41643,1.27645,-0.92605,-1.92805,-0.488146,-0.54146,-0.975606
%E6%A5%BD%E5%99%A8,-0.52327,-1.60174,0.435989,0.555891,0.323392,-2.23861,0.403115,1.45806,0.680413,0.1963,-1.6169,0.671431,0.223671,-2.5913,0.400076,0.699825,0.922567,0.0535096,0.43466,0.288062,0.280692,-0.838137,1.09105,0.503554,-1.16953,-0.295068,-1.49261,-0.0277015,-0.653545,1.35658,1.47775,0.797524,-1.28614,-1.24237,0.665802,-1.39771,0.837854,-0.465819,0.836856,-0.717395,1.12061,0.251702,-1.73282,2.78651,1.31818,-1.08934,-2.34169,-0.381792,-0.589031,-1.03294
%E3%82%A2%E3%83%A1%E3%83%AA%E3%82%AB%E6%B5%B7%E8%BB%8D,-0.54875,-1.74824,0.406859,0.531291,0.354783,-2.15465,0.385986,1.26696,0.600136,0.160379,-1.6518,0.647642,0.308782,-2.65708,0.357573,0.543673,0.95195,-0.0891742,0.391467,0.280439,0.290469,-0.919953,0.933285,0.584675,-1.4743,-0.32883,-1.41725,0.0960978,-0.702606,1.46199,1.68834,0.738782,-1.37069,-1.3154,0.586134,-1.32152,1.00086,-0.475771,0.913509,-0.693844,1.10892,0.388394,-1.62726,3.00208,1.31416,-1.03607,-2.51847,-0.271934,-0.614404,-1.01711
%E3%82%A2%E3%83%A1%E3%83%AA%E3%82%AB%E6%B3%95,-0.537431,-1.77002,0.594632,0.703948,0.270457,-1.94798,0.0925687,1.43571,0.695578,0.174087,-1.81996,0.761449,0.354641,-2.31722,0.304754,0.480742,0.711737,-0.256677,0.381739,0.262292,0.199467,-0.906475,0.823189,0.47446,-1.21051,-0.165287,-1.36853,-0.13168,-0.469541,1.58031,1.23129,1.1043,-1.23796,-1.22753,0.450788,-1.18289,0.460491,-0.498747,0.649663,-0.429138,0.951443,0.26462,-1.81526,2.73146,1.16649,-0.96861,-2.3948,-0.531536,-0.592961,-0.7552
%E6%9D%B1%E6%B4%8B%E6%80%9D%E6%83%B3,-0.0369453,-1.36826,-0.0243872,0.656404,0.54216,-1.47158,0.499504,1.06889,0.735398,0.126905,-1.34752,0.584338,0.355734,-2.45974,0.386853,0.791224,0.744348,-0.413013,0.42041,0.118375,0.443354,-0.622567,0.952474,0.177588,-0.819184,0.125266,-1.3418,-0.0504441,-0.608129,1.53615,1.18519,0.637329,-1.00582,-1.19375,0.52795,-0.923455,1.0194,-0.325031,0.981194,-0.339817,0.930927,0.212486,-1.38179,2.10368,1.23585,-0.940136,-2.16683,-0.761028,-0.487145,-1.01277
%E7%B7%8B%E6%96%87%E5%AD%97,-0.430223,-1.44014,0.231291,0.367229,0.579869,-2.20254,0.656745,1.23148,0.765702,0.257602,-1.55391,0.267923,0.364616,-2.67348,0.682293,0.695317,0.920076,-0.32084,0.699839,0.158553,0.244801,-0.732682,1.08997,0.620039,-1.232,-0.0923573,-1.2433,0.42498,-0.84577,1.58782,1.64014,0.554376,-1.20737,-1.41127,0.307254,-1.29,1.37172,-0.157113,1.08362,-0.65554,0.992066,0.232162,-1.16425,2.77368,1.43309,-1.2252,-2.69623,-0.433574,-0.560319,-1.15538
%E6%B8%A9%E6%9A%96%E6%B9%BF%E6%BD%A4%E6%B0%97%E5%80%99,-0.282842,-1.46152,0.262,0.594732,0.45052,-1.85512,0.498348,1.31608,0.432374,0.181696,-1.43762,0.553771,0.169457,-2.39372,0.318611,0.689918,0.810139,-0.105146,0.382767,0.147691,0.288896,-0.65722,0.852708,0.33989,-1.09836,-0.114093,-1.37219,0.0304758,-0.541294,1.43696,1.3007,0.709038,-1.16222,-1.1628,0.4833,-1.18522,0.853633,-0.391643,0.947593,-0.482328,0.992098,0.262369,-1.56117,2.4451,1.22022,-0.920428,-2.14133,-0.496714,-0.54671,-0.964949
%E5%85%B1%E7%94%A3%E4%B8%BB%E7%BE%A9,-0.265009,-1.36831,0.127668,0.390507,0.803837,-2.27975,0.617309,1.24961,0.380833,0.193205,-1.50381,0.320674,0.139146,-2.95455,0.542329,0.818702,1.15518,-0.0144678,0.491375,0.04642,0.330378,-0.60738,1.20575,0.376065,-1.18498,-0.295773,-1.53407,0.0074539,-0.785953,1.26396,1.68911,0.473836,-1.31407,-1.09461,0.513467,-1.38897,1.22559,-0.112449,1.1797,-0.560842,1.15473,0.437637,-1.37293,2.54896,1.32401,-1.14519,-2.3896,-0.311836,-0.43739,-1.17757
1%E6%9C%8820%E6%97%A5,-0.367394,-1.50592,0.0325554,0.490434,0.509096,-1.7671,0.618235,1.13365,0.65763,0.049651,-1.06091,0.654648,0.275012,-3.03362,0.334682,0.621388,1.06453,-0.220934,0.419878,0.385018,0.743102,-0.579597,0.838022,-0.0749827,-1.20851,-0.1297,-1.59669,-0.288098,-0.614673,1.1417,1.52781,0.78003,-1.11954,-0.997908,0.822603,-1.29427,1.18122,-0.527085,1.27809,-0.435672,1.0672,0.511055,-1.63452,2.17484,1.08048,-0.486575,-1.92163,-0.823938,-0.53918,-0.839763
%E5%9B%BD%E9%9A%9B%E9%80%A3%E5%90%88%E5%AE%89%E5%85%A8%E4%BF%9D%E9%9A%9C%E7%90%86%E4%BA%8B%E4%BC%9A,-0.200582,-1.42821,0.101664,0.431408,0.857874,-2.34362,0.508351,1.49111,0.492152,0.103357,-1.59575,0.373515,0.0365148,-2.97975,0.460819,0.824891,1.26761,0.138579,0.422702,0.136346,0.289345,-0.748545,1.15113,0.572667,-1.40879,-0.506922,-1.6148,0.154801,-0.862854,1.51652,1.79504,0.545655,-1.40943,-1.20613,0.448057,-1.61772,1.45052,-0.26405,1.07107,-1.01648,1.37678,0.359913,-1.39226,2.92901,1.38919,-1.45824,-2.5986,-0.171743,-0.480588,-1.49005
%E3%82%A8%E3%83%AB%E3%83%9E%E3%83%BC%E3%83%BB%E3%83%A9%E3%82%A4%E3%82%B9,-0.201533,-1.43773,0.308746,0.347917,0.493595,-1.96203,0.582811,1.24092,0.706547,0.175331,-1.38923,0.514684,0.385201,-2.49557,0.359491,0.70157,0.839583,-0.302035,0.501086,0.0756733,0.309198,-0.731494,1.055,0.545565,-1.10121,-0.0180773,-1.327,0.207811,-0.76442,1.62741,1.55753,0.594246,-1.20931,-1.27322,0.318772,-1.13264,1.17079,-0.205145,0.948462,-0.515828,1.05633,0.101006,-1.18957,2.5294,1.27371,-0.956615,-2.51631,-0.55872,-0.515979,-1.10077
%E5%9B%BD%E9%9A%9B%E9%80%A3%E5%90%88%E6%95%99%E8%82%B2%E7%A7%91%E5%AD%A6%E6%96%87%E5%8C%96%E6%A9%9F%E9%96%A2,-0.177692,-1.46117,-0.0323622,0.454531,0.867681,-2.41131,0.485248,1.33926,0.54094,0.145606,-1.56343,0.329512,-0.022634,-2.97427,0.577543,0.736656,1.17045,0.148634,0.452548,0.112859,0.230166,-0.819992,1.20895,0.588953,-1.42292,-0.491798,-1.55836,0.222422,-0.834254,1.48881,1.74131,0.45201,-1.40031,-1.22213,0.42791,-1.68095,1.41194,-0.28349,0.967774,-1.0078,1.23245,0.326875,-1.39428,2.87295,1.4399,-1.48082,-2.51173,-0.160656,-0.591522,-1.47092
%E5%A8%AF%E6%A5%BD,-0.0709323,-1.40099,0.370718,0.378071,0.35881,-2.2072,0.568589,1.18946,0.887864,0.224261,-1.4891,0.252301,0.561088,-2.5883,0.362883,0.715865,0.700544,-0.629497,0.780587,-0.0140771,0.371509,-0.703217,1.04065,0.600437,-1.03374,0.111311,-1.27816,0.242138,-0.872849,1.78914,1.61459,0.743291,-1.0874,-1.46985,0.0599376,-1.18787,1.1464,-0.12584,0.989154,-0.448194,0.813465,0.107139,-1.21209,2.57287,1.24283,-1.06411,-2.75187,-0.576409,-0.385067,-0.94982
%E3%83%96%E3%83%83%E3%82%AF%E3%83%9E%E3%83%BC%E3%82%AF,-0.143423,-1.34659,0.103995,0.296077,0.583375,-1.96899,0.715026,1.5114,0.87166,0.215068,-1.59043,0.413412,0.474075,-2.69115,0.30313,0.797861,0.800621,-0.355919,0.777635,0.0302008,0.52116,-0.733646,1.15848,0.131249,-0.999735,0.128768,-1.43284,0.0802298,-0.868698,1.63912,1.63968,0.567048,-1.10166,-1.19893,0.189362,-1.29375,1.21952,-0.263433,0.944604,-0.469751,0.997385,0.196324,-1.12863,2.36968,1.11446,-0.866199,-2.61831,-0.612067,-0.426831,-1.06067
Libvirt,-0.259107,-1.3624,0.508183,0.410707,0.453767,-2.5744,0.406088,1.43791,1.07576,0.179569,-1.61632,0.160116,0.530629,-2.77892,0.467563,0.893762,0.7722,-0.305028,0.913696,0.210505,0.256509,-0.715589,1.21131,0.44033,-1.00771,-0.281521,-1.4242,0.134787,-0.962221,1.81239,1.64274,0.861108,-1.22664,-1.48334,0.177598,-1.39145,1.3387,-0.0952118,1.03804,-0.688064,0.89544,0.15602,-1.29887,2.88668,1.46064,-1.15062,-3.13615,-0.532697,-0.397962,-1.26659
%E3%82%BF%E3%83%96_(GUI),-0.241666,-1.28856,0.39235,0.415087,0.44229,-2.34736,0.6796,1.51154,0.920661,0.261634,-1.41587,0.189907,0.276668,-2.66975,0.480273,0.719411,0.755587,-0.176479,0.760311,0.063435,0.243269,-0.67707,1.19823,0.432124,-0.977515,-0.242251,-1.35851,0.251363,-0.954844,1.72131,1.51934,0.535842,-1.28061,-1.38733,0.130522,-1.39065,1.24627,-0.218998,0.941322,-0.669982,1.0916,0.162776,-1.16905,2.68967,1.39176,-1.42165,-2.8389,-0.427425,-0.341964,-1.27767
%E4%B8%AD%E8%8F%AF%E4%BA%BA%E6%B0%91%E5%85%B1%E5%92%8C%E5%9B%BD,-0.354018,-1.48907,0.324651,0.520117,0.572693,-2.57131,0.659816,1.38045,0.690124,0.280695,-1.46491,0.272868,-0.0508102,-2.92408,0.466134,0.690396,0.967432,0.130002,0.523589,0.0598444,0.156375,-0.565092,1.19682,0.405076,-1.33592,-0.470844,-1.36081,0.234081,-0.914983,1.55498,1.56891,0.553601,-1.35566,-1.27798,0.210984,-1.51963,1.42818,-0.270789,1.09838,-0.8426,1.26061,0.171217,-1.45134,2.80218,1.57842,-1.46404,-2.57529,-0.257846,-0.438455,-1.43682
%E3%83%95%E3%82%A3%E3%83%BC%E3%83%89,-0.237716,-1.34293,0.453496,0.338359,0.466227,-2.28661,0.68689,1.43474,0.77078,0.193022,-1.38616,0.275674,0.398997,-2.66775,0.522273,0.952436,0.870473,-0.326971,0.68468,0.0687022,0.311144,-0.622364,1.27579,0.455525,-0.89951,-0.212032,-1.50165,0.208501,-0.902939,1.60755,1.63015,0.571638,-1.24434,-1.43016,0.293136,-1.23676,1.40265,-0.219372,1.08125,-0.632346,1.11566,0.11311,-1.16145,2.58163,1.43841,-1.18958,-2.58665,-0.596582,-0.482848,-1.18801
%E5%BF%83%E9%9C%8A%E4%B8%BB%E7%BE%A9,-0.256011,-1.50128,0.219898,0.287274,0.714082,-2.11522,0.604919,1.22732,0.71124,0.185294,-1.51146,0.364589,0.352161,-2.90378,0.510261,0.85834,1.12806,-0.202104,0.596101,0.20358,0.48182,-0.618697,1.17963,0.423393,-1.18054,-0.0869427,-1.4744,0.109234,-0.935724,1.43874,1.71794,0.507693,-1.23153,-1.18985,0.492743,-1.371,1.38843,-0.154167,1.05595,-0.632122,1.12661,0.314997,-1.26839,2.50797,1.24676,-1.02483,-2.57159,-0.439622,-0.430457,-1.1784
1797%E5%B9%B4,0.0316398,-1.47516,-0.0215393,0.6018,0.716898,-1.62742,0.557747,1.0631,0.561285,-0.0433064,-1.06092,0.512987,0.159576,-2.60387,0.288056,0.792081,0.95019,-0.190875,0.499354,0.125622,0.461947,-0.618549,0.775249,0.269199,-1.12787,0.1145,-1.52352,-0.0744253,-0.751546,1.57757,1.31516,0.743462,-1.00315,-1.06492,0.537941,-1.13578,0.912345,-0.263143,1.23521,-0.29924,0.973964,0.311316,-1.42303,2.07785,1.10606,-0.958851,-2.06407,-0.736629,-0.537851,-0.983162
%E3%83%A9%E3%82%A4%E3%83%B3%E3%83%A2%E3%83%BC%E3%83%89%E3%83%96%E3%83%A9%E3%82%A6%E3%82%B6,-0.13021,-1.33677,0.0488787,0.467712,0.676376,-2.25425,0.617904,1.19924,0.985883,0.0681081,-1.62824,0.197367,0.502504,-2.90332,0.464447,0.749336,1.05734,-0.28304,0.59031,0.0861974,0.307524,-0.746365,1.17103,0.554625,-1.16381,-0.237298,-1.38615,0.216849,-0.807828,1.67355,1.79047,0.646772,-1.20327,-1.39667,0.259976,-1.39341,1.36501,-0.228865,1.01525,-0.851433,1.10777,0.248214,-1.28375,2.86035,1.44326,-1.13269,-2.79891,-0.347578,-0.46391,-1.31241
3%E6%9C%884%E6%97%A5,-0.334139,-1.32262,0.14344,0.553382,0.536372,-1.79497,0.588042,1.16921,0.804302,0.05494,-1.12894,0.582321,0.381558,-2.98879,0.358954,0.641297,0.935997,-0.298623,0.568596,0.305461,0.721298,-0.509432,0.879851,-0.120893,-1.04718,-0.0185708,-1.69044,-0.158512,-0.658486,1.29866,1.45921,0.825047,-1.04267,-1.09676,0.711042,-1.17398,1.17585,-0.494466,1.1913,-0.35555,0.989521,0.417213,-1.56572,2.36993,1.02865,-0.618178,-2.25593,-0.793969,-0.429027,-0.833699
Goanna,-0.343867,-1.61033,0.179011,0.308798,0.467093,-2.22108,0.622766,1.21987,0.707469,0.000438238,-1.52541,0.590006,0.253658,-2.71292,0.452184,0.758834,1.04165,-0.119385,0.464038,0.164957,0.29439,-0.767452,1.27555,0.609393,-1.27006,-0.304426,-1.56111,0.0823918,-0.897228,1.46518,1.87489,0.638987,-1.39389,-1.35083,0.518568,-1.48223,1.33339,-0.448848,0.857331,-0.841065,1.263,0.241437,-1.44962,2.82928,1.42431,-1.01788,-2.53602,-0.463362,-0.464693,-1.24884
%E5%B0%8F%E5%85%AC%E5%A5%B3,-0.490553,-1.42615,0.458234,0.425396,0.376305,-2.10938,0.547327,1.22111,0.790914,0.151999,-1.51892,0.449525,0.4489,-2.36448,0.384641,0.687304,0.73912,-0.0850659,0.553515,0.102738,0.242065,-0.787161,1.13983,0.518394,-1.06756,-0.112309,-1.36175,0.0964976,-0.757704,1.49446,1.47801,0.704326,-1.17944,-1.2456,0.444582,-1.2653,1.08711,-0.21937,0.775722,-0.585319,0.962851,0.125308,-1.16916,2.61678,1.24961,-1.11962,-2.63402,-0.404626,-0.507575,-1.0845
%C3%80,-0.323378,-1.35382,0.0163779,0.148184,0.846647,-2.13366,0.806032,0.922115,0.797191,0.0843595,-1.0556,0.298777,0.36323,-3.32754,0.490562,0.796377,1.3418,-0.320104,0.674306,-0.0111956,0.681786,-0.456258,1.32859,0.371073,-1.23061,-0.197897,-1.82972,-0.016667,-1.0616,1.27526,2.22244,0.42059,-1.40439,-1.2388,0.561768,-1.30515,1.51187,-0.171533,1.18126,-0.565419,1.18573,0.347171,-1.23007,2.89669,1.34911,-0.974165,-2.65669,-0.479641,-0.497234,-1.29243
%E8%BB%8D%E5%9B%BD%E4%B8%BB%E7%BE%A9,-0.268687,-1.23308,0.307582,0.640256,0.33853,-1.8483,0.565578,1.04511,0.896972,-0.0305436,-1.34627,0.349634,0.468159,-2.43757,0.323408,0.657467,0.654675,-0.238125,0.546935,0.0156009,0.319451,-0.553419,0.904009,0.398683,-1.09862,0.162249,-1.06456,0.0125263,-0.643802,1.65223,1.28218,0.800069,-1.13547,-1.32426,0.280671,-1.05194,0.956679,-0.218745,0.948968,-0.301643,0.809556,0.243554,-1.16492,2.46146,1.20298,-1.02739,-2.56412,-0.518731,-0.447999,-1.03751
%C3%8E,-0.404576,-1.43951,0.0182339,0.175389,0.835326,-2.1544,0.772401,0.695818,0.611803,0.0690411,-0.996051,0.514518,0.248152,-3.52282,0.604042,0.785738,1.44394,-0.263925,0.453348,0.00793493,0.726606,-0.395473,1.32202,0.441384,-1.21114,-0.354791,-1.92557,0.00762582,-0.956259,0.950936,2.23051,0.399924,-1.39344,-1.32758,0.889991,-1.26608,1.56881,-0.242584,1.13498,-0.678588,1.30321,0.326407,-1.46622,2.94534,1.4478,-1.06424,-2.54275,-0.423518,-0.461148,-1.21377
NEXTSTEP,-0.097058,-1.39085,0.173673,0.327147,0.422444,-1.9735,0.577997,1.15296,0.853959,0.0188467,-1.26198,0.390745,0.582162,-2.5438,0.30275,0.728443,0.789214,-0.51583,0.739564,0.147404,0.335219,-0.750261,0.931024,0.444763,-1.0254,-0.0702834,-1.44702,0.0840371,-0.821672,1.72667,1.83526,0.682302,-1.06006,-1.42778,0.29072,-1.13167,1.15907,-0.286638,1.05796,-0.548808,0.870904,0.167994,-1.11117,2.48089,1.18135,-0.772285,-2.73584,-0.658209,-0.523844,-1.06689
%E6%9E%AF%E8%91%89%E5%89%A4,-0.0985634,-1.30445,0.293194,0.461325,0.589656,-1.76494,0.29266,1.42708,0.632859,0.152569,-1.46858,0.373611,0.431912,-2.43483,0.377814,0.626238,0.626481,-0.540211,0.682604,0.133365,0.335523,-0.812588,0.653244,0.364086,-0.86918,0.132699,-1.19449,0.0200458,-0.625611,1.59972,1.1929,0.765844,-0.912403,-1.2587,0.214871,-0.953057,0.729977,-0.0178279,0.926138,-0.336366,0.772979,-0.0253532,-1.24472,1.95757,0.996713,-1.03591,-2.51571,-0.583686,-0.502761,-0.761586
1854%E5%B9%B4,-0.366501,-1.62795,0.121947,0.5081,0.441809,-1.85986,0.535107,1.1647,0.630861,-0.00413771,-1.28128,0.784144,0.0993801,-2.69064,0.348623,0.769281,0.969594,-0.00405281,0.474794,0.333178,0.375059,-0.739076,0.887812,0.420135,-1.33218,-0.116221,-1.63494,-0.0704325,-0.814426,1.55038,1.50026,0.776434,-1.24953,-1.08685,0.812531,-1.29963,1.0217,-0.611342,1.17816,-0.622234,1.13126,0.428766,-1.80272,2.61372,1.28708,-0.850663,-2.0506,-0.624589,-0.614342,-1.11676
%E7%AB%9C%E5%B7%BB,-0.196025,-1.42457,0.379325,0.59086,0.417415,-2.00592,0.530829,1.23132,0.718824,0.0848628,-1.31301,0.38623,0.321338,-2.61241,0.321463,0.709621,0.741529,-0.353508,0.663841,0.166516,0.287587,-0.628207,0.789734,0.375068,-1.06506,-0.029717,-1.26377,0.0888561,-0.681843,1.57972,1.42019,0.79425,-0.990994,-1.38956,0.2351,-1.04856,1.06284,-0.268238,1.16097,-0.415764,0.938005,0.113725,-1.39373,2.33359,1.14817,-1.0544,-2.50606,-0.596342,-0.504611,-0.930851
%E3%82%A6%E3%82%A3%E3%82%AD%E3%83%A1%E3%83%87%E3%82%A3%E3%82%A2%E8%B2%A1%E5%9B%A3,-0.338064,-1.40027,0.232306,0.37768,0.615235,-2.40249,0.638752,1.43636,0.790057,0.233191,-1.48138,0.268647,0.259777,-2.87035,0.634422,0.798925,0.888428,-0.147299,0.708154,0.1289,0.3048,-0.764749,1.17311,0.467487,-1.24663,-0.167587,-1.43198,0.364411,-0.947545,1.58505,1.74961,0.570993,-1.401,-1.38004,0.224368,-1.50577,1.38247,-0.259877,1.10704,-0.715309,1.04908,0.230474,-1.23373,2.89334,1.47767,-1.31339,-2.7701,-0.464703,-0.573382,-1.3069
%E3%82%A2%E3%82%AD%E3%83%A5%E3%83%BC%E3%83%88%E3%83%BB%E3%82%A2%E3%82%AF%E3%82%BB%E3%83%B3%E3%83%88,-0.239484,-1.16392,0.0501482,0.335163,0.88794,-2.53187,0.841101,1.02372,1.02849,0.322708,-1.42865,-0.0897995,0.772347,-3.42644,0.36907,0.869755,1.00006,-0.213327,0.973431,-0.176896,0.730057,-0.489699,1.45046,0.151027,-1.25321,0.12728,-1.72119,-0.194709,-0.881815,1.38443,1.89282,0.69942,-1.16151,-1.14404,0.217857,-1.55899,1.21202,0.0635141,1.28247,-0.325066,0.742996,0.449107,-0.992989,2.82239,1.19475,-0.892664,-2.91588,-0.504608,-0.489954,-1.02704
%E8%87%AA%E6%B2%BB%E6%A8%A9,0.237919,-1.63844,-0.0320522,0.648606,0.711017,-1.61007,0.532497,1.03152,0.452022,0.135528,-1.22672,0.776501,0.293678,-2.61868,0.017467,0.766403,1.1114,-0.368733,0.214628,0.101305,0.425338,-0.629834,0.859951,0.163436,-1.01123,-0.197387,-1.49953,-0.24153,-0.66747,1.41626,1.47324,0.615006,-0.949747,-1.17009,0.626569,-1.05609,0.867889,-0.350029,0.980496,-0.422199,1.20829,0.513708,-1.47983,1.99075,1.13133,-0.852859,-2.04506,-0.621092,-0.340829,-0.909406
%E3%83%A1%E3%82%B8%E3%83%A3%E3%83%BC%E3%83%AA%E3%83%BC%E3%82%B0%E3%83%99%E3%83%BC%E3%82%B9%E3%83%9C%E3%83%BC%E3%83%AB,-0.185125,-1.34352,0.270145,0.376891,0.686766,-2.475,0.624026,1.42713,0.92149,0.185788,-1.63533,0.105138,0.341287,-2.84355,0.619198,0.901985,0.985568,-0.0627691,0.725452,0.164609,0.261782,-0.693377,1.42454,0.668957,-1.25622,-0.366686,-1.28774,0.342979,-0.971272,1.71614,1.67015,0.630646,-1.36771,-1.42543,0.254063,-1.46871,1.68878,0.0291649,1.11482,-0.855752,1.02307,0.259818,-1.05389,3.03671,1.67619,-1.52537,-3.05757,-0.372974,-0.56555,-1.51283
%E5%A4%AA%E5%B9%B3%E6%B4%8B%E6%88%A6%E4%BA%89,-0.260496,-1.39783,0.187388,0.494371,0.5453,-2.37799,0.508137,1.36249,0.807998,0.136063,-1.47046,0.209165,0.245246,-2.82933,0.468204,0.774705,0.817114,-0.139495,0.652743,0.104108,0.256868,-0.694458,1.14725,0.39763,-1.06334,-0.15824,-1.33275,0.139146,-0.932319,1.48797,1.31358,0.581183,-1.32272,-1.32889,0.421183,-1.41064,1.2311,-0.0999397,1.1103,-0.592285,0.874759,0.399877,-1.38321,2.70344,1.40613,-1.39169,-2.56767,-0.4549,-0.500246,-1.26723
%E6%AD%A6%E5%99%A8%E8%B2%BF%E6%98%93%E6%9D%A1%E7%B4%84,-0.155165,-1.2627,0.177445,0.457051,0.668794,-2.05872,0.527135,1.39865,0.779092,0.148103,-1.33099,0.429029,0.292902,-2.69526,0.386589,0.833307,0.979785,-0.108935,0.589646,0.174591,0.381379,-0.684211,1.08414,0.355658,-1.0935,-0.0719043,-1.54284,-0.0663483,-0.830073,1.5287,1.60619,0.711401,-1.23938,-1.15757,0.504974,-1.39856,1.03165,-0.224206,1.01163,-0.575548,1.01425,0.327964,-1.21557,2.44013,1.29532,-0.968262,-2.58822,-0.543226,-0.558185,-1.28308
%E3%83%A2%E3%83%90%E3%82%A4%E3%83%AB%E3%83%96%E3%83%A9%E3%82%A6%E3%82%B6,-0.251269,-1.5045,0.1351,0.368308,0.399512,-2.0428,0.450704,1.2507,0.845109,-0.0671425,-1.45708,0.484155,0.396398,-2.55881,0.453255,0.67809,0.762526,-0.223459,0.524657,0.145912,0.246413,-0.823188,0.998404,0.572287,-0.988601,-0.213815,-1.41078,0.201576,-0.711105,1.59854,1.51043,0.548401,-1.20163,-1.55137,0.413818,-1.19605,1.11113,-0.331158,0.879632,-0.722456,1.11437,0.0536053,-1.3428,2.5114,1.25255,-1.18938,-2.4563,-0.548676,-0.385061,-1.18291
Blink_(%E3%83%AC%E3%83%B3%E3%83%80%E3%83%AA%E3%83%B3%E3%82%B0%E3%82%A8%E3%83%B3%E3%82%B8%E3%83%B3),-0.0467689,-1.26279,0.12805,0.372886,0.540358,-2.11173,0.72105,1.30611,0.94717,0.082821,-1.49877,0.272536,0.509924,-2.75212,0.393044,0.715311,0.848835,-0.34257,0.762365,0.0939632,0.32738,-0.764566,1.02008,0.517706,-1.08113,-0.0289136,-1.40211,0.287293,-0.878561,1.79317,1.68782,0.654444,-1.13343,-1.38949,0.204112,-1.2896,1.2635,-0.2418,1.01045,-0.685221,0.939693,0.147984,-1.19226,2.76841,1.28221,-1.12764,-2.85218,-0.449799,-0.422076,-1.19014
Lynx_(%E3%82%A6%E3%82%A7%E3%83%96%E3%83%96%E3%83%A9%E3%82%A6%E3%82%B6),-0.10645,-1.31028,0.259285,0.459361,0.55189,-2.00502,0.529741,1.39361,0.953023,0.200089,-1.51165,0.331098,0.502386,-2.74803,0.311563,0.739251,0.754887,-0.444878,0.706982,0.0761975,0.389734,-0.710286,1.0812,0.263606,-0.987946,0.0462536,-1.48259,0.0792501,-0.860394,1.65319,1.54246,0.751286,-1.09127,-1.27358,0.178906,-1.24024,1.1919,-0.264973,0.971984,-0.451392,0.910134,0.0971882,-1.22219,2.53904,1.29673,-1.01002,-2.87033,-0.61422,-0.493647,-1.0966
EdgeHTML,-0.439772,-1.47428,0.300577,0.387559,0.459953,-2.34132,0.686589,1.31282,0.934435,0.173189,-1.54678,0.352751,0.361436,-2.87148,0.460176,0.769592,1.02644,-0.172312,0.595309,0.223773,0.301071,-0.767759,1.15431,0.512089,-1.22565,-0.271489,-1.50356,0.139123,-0.803491,1.54533,1.84133,0.67677,-1.27491,-1.25531,0.385885,-1.40328,1.32421,-0.351519,1.07498,-0.780276,1.15524,0.176325,-1.38369,2.87565,1.45128,-1.06605,-2.82738,-0.442133,-0.624862,-1.23948
1920%E5%B9%B4,-0.173924,-1.52075,-0.136469,0.462242,0.949575,-1.79163,0.494201,1.37712,0.553906,-0.0472302,-1.30829,0.549445,-0.00540667,-2.84114,0.501385,0.771977,1.21978,-0.0814188,0.389273,0.221379,0.570743,-0.648353,0.902493,0.342876,-1.24779,-0.0604305,-1.56905,-0.0382699,-0.87636,1.42847,1.56805,0.590521,-1.40591,-1.02591,0.575513,-1.38356,1.21659,-0.245124,1.39994,-0.662337,1.20511,0.44615,-1.48768,2.28448,1.32592,-1.07942,-2.1534,-0.709658,-0.66245,-1.36897
%E3%82%AF%E3%83%BC%E3%83%BB%E3%82%AF%E3%83%A9%E3%83%83%E3%82%AF%E3%82%B9%E3%83%BB%E3%82%AF%E3%83%A9%E3%83%B3,0.0230332,-1.31742,0.0828649,0.325772,0.795685,-1.95135,0.693542,1.15149,0.745848,0.0438436,-1.21302,0.413898,0.379266,-2.73309,0.335221,0.886065,1.01252,-0.283277,0.732356,0.222552,0.522424,-0.580295,1.09249,0.352174,-1.11816,-0.14097,-1.56092,0.124926,-1.01633,1.63522,1.73542,0.662364,-0.959471,-1.20412,0.407091,-1.20636,1.33959,-0.063967,1.24546,-0.442014,0.932568,0.355695,-1.18835,2.41822,1.28599,-0.989666,-2.6063,-0.63336,-0.537569,-1.14291
%E3%83%91%E3%83%AC%E3%82%AA%E3%83%BB%E3%82%A4%E3%83%B3%E3%83%87%E3%82%A3%E3%82%A2%E3%83%B3,0.291234,-1.34116,0.019409,0.356436,0.843776,-1.93125,0.563545,1.21944,0.902873,0.151959,-1.34284,0.227643,0.518728,-2.72906,0.337716,0.763744,0.82226,-0.670147,0.767273,0.0773731,0.401017,-0.718796,0.925169,0.328793,-1.05353,0.0244769,-1.27673,0.15061,-0.905811,1.90235,1.6694,0.562579,-1.02196,-1.29215,-0.0558643,-1.04815,1.24835,0.0270593,1.1898,-0.383068,0.865711,0.120387,-1.00168,2.23135,1.29451,-1.07264,-2.81162,-0.740108,-0.526568,-1.16449
%E3%83%A2%E3%83%92%E3%82%AB%E3%83%B3%E6%97%8F%E3%81%AE%E6%9C%80%E5%BE%8C,-0.261361,-1.34014,0.300967,0.485267,0.408032,-2.23243,0.554234,1.41592,0.840079,0.200865,-1.45576,0.284067,0.282122,-2.58634,0.43708,0.734219,0.826226,-0.159559,0.561612,0.0821604,0.284593,-0.710038,1.17853,0.421203,-1.04242,-0.180206,-1.31551,0.076905,-0.7867,1.46831,1.45562,0.66557,-1.31146,-1.18392,0.293919,-1.31919,1.07343,-0.29295,0.957934,-0.569027,1.08061,0.206491,-1.34536,2.63764,1.41633,-1.19339,-2.59834,-0.481804,-0.472875,-1.19259
%E3%82%A6%E3%83%AA,-0.231976,-1.45629,0.352584,0.54279,0.420603,-1.95458,0.613225,1.16728,0.663951,0.0502909,-1.39715,0.407922,0.485748,-2.33333,0.473255,0.776712,0.759573,-0.346029,0.52143,0.132723,0.143039,-0.742234,1.07778,0.473399,-0.934128,-0.174797,-1.31496,0.0776843,-0.668911,1.46061,1.36142,0.543768,-1.134,-1.41212,0.423807,-1.0089,1.03992,-0.178885,0.962633,-0.466696,0.960678,0.246817,-1.14643,2.42653,1.24734,-1.18131,-2.49214,-0.595643,-0.500148,-0.989091
%E6%9C%9D%E9%AE%AE%E6%B0%91%E4%B8%BB%E4%B8%BB%E7%BE%A9%E4%BA%BA%E6%B0%91%E5%85%B1%E5%92%8C%E5%9B%BD,-0.231622,-1.34938,0.118641,0.610028,0.487006,-2.26642,0.676061,1.45396,0.781479,0.147955,-1.33731,0.260958,-0.195702,-2.93773,0.339487,0.712145,1.00203,0.0537668,0.546988,0.011063,0.28114,-0.493192,1.03551,0.163808,-1.13011,-0.328896,-1.45285,-0.0162227,-0.798332,1.40558,1.38872,0.532792,-1.26335,-1.17151,0.281847,-1.46288,1.32077,-0.423123,1.10117,-0.733647,1.29443,0.102001,-1.43882,2.52707,1.4949,-1.49451,-2.54698,-0.35977,-0.407071,-1.33808
%E3%82%A2%E3%83%A1%E3%83%AA%E3%82%AB%E5%90%88%E8%A1%86%E5%9B%BD%E3%81%AE%E7%A4%BE%E4%BC%9A,-0.412899,-1.63001,0.448727,0.606711,0.310114,-2.0368,0.410927,1.27161,0.68842,0.105852,-1.53764,0.604501,0.376848,-2.46999,0.20232,0.546896,0.84274,-0.249521,0.455855,0.210799,0.240165,-0.87189,0.728617,0.455241,-1.27088,-0.149495,-1.21993,0.03036,-0.604332,1.62427,1.47815,0.881436,-1.13677,-1.31542,0.367283,-1.13405,0.846311,-0.458378,0.886184,-0.528456,1.04101,0.172499,-1.56069,2.6216,1.15311,-0.990884,-2.47161,-0.499045,-0.55133,-0.909326
%E5%8B%95%E7%89%A9%E3%81%AE%E6%A8%A9%E5%88%A9,-0.118391,-1.6963,0.0881095,0.439474,0.77268,-1.54596,0.671566,1.17261,0.301937,0.192094,-1.299,0.530902,0.190634,-2.72495,0.132777,0.606197,1.32166,-0.318207,0.249253,0.13156,0.82931,-0.513218,0.871445,0.162899,-1.2684,-0.0510464,-1.41537,-0.176195,-0.708819,1.18272,1.54533,0.518471,-1.22105,-0.994807,0.702648,-1.15079,1.05267,-0.187274,0.994844,-0.291297,1.16978,0.77336,-1.34964,2.05478,1.22961,-0.757794,-2.00767,-0.58345,-0.512461,-0.831864
%E7%85%A7%E3%82%8A%E7%84%BC%E3%81%8D,-0.233828,-1.41277,0.336938,0.394891,0.308804,-1.85703,0.545442,1.19222,0.718912,0.0803605,-1.25825,0.467944,0.480221,-2.48725,0.370745,0.727471,0.810431,-0.587629,0.587801,0.106988,0.353524,-0.685985,0.963693,0.401915,-0.890689,0.051003,-1.30266,0.160582,-0.745466,1.53991,1.53598,0.612044,-1.11183,-1.37642,0.280565,-0.924642,1.18514,-0.297086,1.07639,-0.374067,0.935204,0.0803168,-1.20899,2.30218,1.23038,-0.926296,-2.60082,-0.655013,-0.497268,-0.908409
%E3%83%95%E3%83%AB%E3%83%A1%E3%82%BF%E3%83%AB%E3%83%BB%E3%82%B8%E3%83%A3%E3%82%B1%E3%83%83%E3%83%88,-0.0503742,-1.42488,0.180392,0.266747,0.759888,-2.43274,0.646334,1.34426,0.881898,0.136139,-1.46971,0.222667,0.289541,-2.85018,0.586187,0.867154,1.07293,-0.152214,0.754375,0.248431,0.367842,-0.698406,1.27007,0.64221,-1.26078,-0.307603,-1.36523,0.479284,-1.02095,1.79004,1.8171,0.62649,-1.2229,-1.43879,0.253695,-1.55268,1.76154,-0.0140859,1.12107,-0.953138,0.98987,0.220075,-1.03091,2.86586,1.53596,-1.37055,-2.99602,-0.468829,-0.557868,-1.49649
%E3%83%8F%E3%83%AF%E3%82%A4%E8%AB%B8%E5%B3%B6,-0.183763,-1.62753,0.109323,0.500045,0.60493,-2.23908,0.544067,1.0624,0.724931,0.168952,-1.39075,0.381618,0.257252,-2.65762,0.403098,0.733522,0.829919,-0.204474,0.601881,0.191836,0.262288,-0.69552,1.08525,0.334309,-1.12605,-0.267503,-1.39223,0.184656,-0.928006,1.71057,1.52635,0.577694,-1.12431,-1.41181,0.309911,-1.30573,1.34653,-0.289643,1.02268,-0.560555,0.99951,0.237439,-1.36193,2.44288,1.33464,-1.13457,-2.44478,-0.553197,-0.464446,-1.19915
%E3%82%A2%E3%83%A1%E3%83%AA%E3%82%AB%E5%90%88%E8%A1%86%E5%9B%BD%E3%82%A8%E3%83%8D%E3%83%AB%E3%82%AE%E3%83%BC%E7%9C%81,-0.165013,-1.42779,0.331665,0.380323,0.551495,-2.01866,0.605422,1.31678,0.874068,0.209186,-1.28378,0.327848,0.455873,-2.79339,0.382484,0.811808,0.919714,-0.399031,0.611635,0.142298,0.477318,-0.572624,1.07818,0.347411,-1.07998,0.028187,-1.4374,0.102696,-0.927815,1.58467,1.55921,0.69012,-1.11487,-1.25521,0.285779,-1.1566,1.35936,-0.0809741,1.20936,-0.44477,0.974769,0.206266,-1.20516,2.46486,1.30932,-1.15251,-2.68593,-0.693667,-0.540898,-1.12387
%E4%BE%B5%E7%95%A5,-0.361688,-1.39213,0.249753,0.631923,0.394363,-1.75309,0.507542,1.33491,0.603604,0.115158,-1.48403,0.651706,0.296316,-2.48612,0.344894,0.679467,0.707487,-0.156171,0.48646,0.06915,0.299484,-0.726551,0.765415,0.349524,-1.01466,-0.000207068,-1.19738,0.00107579,-0.564743,1.38844,1.19734,0.780717,-1.08618,-1.23776,0.503702,-1.03314,0.721338,-0.327507,0.954758,-0.414182,0.967698,0.241327,-1.39416,2.38142,1.19298,-1.08068,-2.36256,-0.589134,-0.483933,-0.883866
%E3%82%AA%E3%83%9E%E3%83%8F%E3%83%BB%E3%83%93%E3%83%BC%E3%83%81,-0.029998,-1.25617,0.09258,0.462099,0.903145,-2.13855,0.454658,1.38847,0.815227,0.209875,-1.3675,0.108371,0.33095,-2.91899,0.50086,0.72874,0.912526,-0.322091,0.772409,0.00412658,0.455194,-0.517427,1.06151,0.307657,-1.20519,0.0588808,-1.38246,0.110443,-0.909528,1.63835,1.45848,0.678196,-1.17539,-1.15388,0.0894653,-1.33151,1.18938,0.0605976,1.27453,-0.459261,0.88709,0.315056,-1.09506,2.48868,1.26617,-1.23564,-2.72258,-0.498725,-0.52775,-1.19424
%E6%97%A5%E6%9C%AC%E6%B5%B7%E8%BB%8D,-0.188866,-1.52807,0.110489,0.517791,0.765934,-2.16265,0.44922,1.2978,0.436192,0.150034,-1.4781,0.401677,-0.0152904,-2.88175,0.480912,0.676771,1.09252,-0.0157878,0.46093,0.187378,0.549413,-0.59158,1.01482,0.335083,-1.31994,-0.268491,-1.42433,0.128545,-0.844645,1.25618,1.35479,0.569321,-1.30059,-1.22406,0.556596,-1.45028,1.32439,-0.095213,1.19547,-0.572665,1.09606,0.483076,-1.43377,2.45353,1.22753,-1.2491,-2.26788,-0.386385,-0.487355,-1.15068
%E3%83%9E%E3%83%BC%E3%82%AF%E3%83%BB%E3%82%A2%E3%83%B3%E3%83%89%E3%83%AA%E3%83%BC%E3%82%BB%E3%83%B3,-0.190078,-1.42871,0.187499,0.390922,0.635662,-2.22445,0.535631,1.30136,0.9405,0.171663,-1.43195,0.248487,0.40853,-2.86048,0.503378,0.768469,0.869187,-0.294446,0.766198,0.19459,0.429331,-0.735282,1.0665,0.49728,-1.30397,-0.0740887,-1.37264,0.297211,-0.976269,1.75111,1.68323,0.720838,-1.06957,-1.36751,0.180197,-1.36807,1.32875,-0.114704,1.15799,-0.692791,0.881122,0.177496,-1.16543,2.69015,1.36411,-1.19245,-2.81406,-0.518094,-0.58128,-1.24993
Microsoft_Silverlight,-0.35851,-1.62104,0.183625,0.305601,0.462269,-2.45741,0.581155,1.29762,0.873738,0.0360899,-1.68435,0.463756,0.437024,-2.74296,0.363954,0.825531,1.01422,-0.107831,0.629512,0.212315,0.179743,-0.94758,1.14759,0.507503,-1.2774,-0.488858,-1.61969,0.0981494,-0.89435,1.67979,2.00163,0.643721,-1.32497,-1.36275,0.460869,-1.51123,1.40151,-0.496805,0.988161,-0.922938,1.20125,0.288612,-1.56439,3.06435,1.41069,-0.964256,-2.72951,-0.386796,-0.502237,-1.31263
%E3%83%9B%E3%83%AF%E3%82%A4%E3%83%88%E3%83%8F%E3%82%A6%E3%82%B9,-0.290209,-1.35695,0.157621,0.384738,0.720796,-2.22813,0.653024,1.48219,0.858622,0.173441,-1.64527,0.226201,0.385492,-2.83505,0.556101,0.828877,1.13062,-0.139589,0.661715,0.189309,0.448011,-0.759097,1.26803,0.414196,-1.30867,-0.139751,-1.44017,0.179564,-0.913354,1.53557,1.79426,0.645067,-1.30651,-1.12566,0.380606,-1.56774,1.29336,-0.106124,1.0434,-0.791237,1.09887,0.394868,-1.1135,2.743,1.39642,-1.22794,-2.90078,-0.430674,-0.664559,-1.26645
%E5%8F%A4%E6%A3%AE%E7%BE%A9%E4%B9%85,-0.280606,-1.41018,0.691361,0.787942,0.386798,-1.92682,0.0844777,1.54014,0.779232,0.139744,-1.57458,0.448838,0.273873,-2.39866,0.344082,0.513447,0.517002,-0.437178,0.697912,0.24791,0.309858,-0.657304,0.729977,0.24657,-0.928076,0.00348518,-1.18396,0.0066229,-0.573656,1.61215,0.849979,1.18851,-0.967595,-1.2673,0.188319,-1.06233,0.58041,-0.147479,0.941989,-0.238156,0.709513,0.184855,-1.62322,2.29645,1.10168,-1.12491,-2.53823,-0.682297,-0.451791,-0.768382
%E5%9B%BD%E5%88%A5%E3%82%B3%E3%83%BC%E3%83%89%E3%83%88%E3%83%83%E3%83%97%E3%83%AC%E3%83%99%E3%83%AB%E3%83%89%E3%83%A1%E3%82%A4%E3%83%B3,0.12908,-1.12974,0.307829,0.415008,0.748536,-1.78441,0.497613,1.52004,0.744299,0.237755,-1.40745,0.250947,0.547897,-2.6434,0.326618,0.723285,0.732612,-0.613088,0.892356,0.0182972,0.514232,-0.549047,1.10139,0.287532,-1.0516,0.104181,-1.24061,0.239716,-0.782136,1.79092,1.44553,0.790913,-0.996149,-1.29926,0.00743522,-1.10079,1.15944,0.0692207,1.15953,-0.267822,0.779184,0.210137,-0.895581,2.45278,1.23228,-0.990975,-2.75442,-0.709875,-0.525057,-1.04495
%E3%83%A9%E3%82%A4%E9%BA%A6%E7%95%91%E3%81%A7%E3%81%A4%E3%81%8B%E3%81%BE%E3%81%88%E3%81%A6,-0.105001,-1.48585,0.0967719,0.43099,0.567118,-2.09888,0.560187,1.19797,0.816254,0.02207,-1.32982,0.423447,0.319341,-2.75779,0.417028,0.794727,1.04759,-0.224293,0.60635,0.280407,0.420353,-0.702069,1.03935,0.487839,-1.19073,-0.173703,-1.32432,0.112928,-0.821978,1.5293,1.63566,0.738675,-1.11239,-1.27948,0.502136,-1.26673,1.26406,-0.144443,1.18714,-0.683574,0.953811,0.262936,-1.30199,2.53922,1.39675,-1.14264,-2.59733,-0.56601,-0.663271,-1.17754
Sleipnir,-0.393876,-1.49978,0.0270329,0.365837,0.598251,-2.34247,0.745522,1.15966,0.857739,0.00477153,-1.66482,0.390348,0.314495,-2.9077,0.429327,0.81516,1.16572,0.000580571,0.433003,0.128121,0.293829,-0.732312,1.34153,0.394717,-1.10163,-0.453521,-1.66114,-0.0137472,-0.857551,1.34633,1.82953,0.547618,-1.41903,-1.24276,0.59792,-1.46703,1.44388,-0.444249,0.895743,-0.810185,1.28877,0.336635,-1.59401,2.8517,1.48734,-1.09808,-2.60591,-0.458103,-0.438251,-1.31968
%E6%A7%8B%E6%96%87%E8%A7%A3%E6%9E%90%E5%99%A8,-0.0486586,-1.56998,0.292307,0.672175,0.360494,-1.78091,0.474333,1.32681,0.733383,0.22733,-1.28808,0.47946,0.468983,-2.42896,0.294613,0.677335,0.673611,-0.659753,0.573336,0.063467,0.505914,-0.601063,0.811195,0.144076,-0.90166,0.15919,-1.29712,-0.0804707,-0.57647,1.54893,1.30721,0.791213,-0.870296,-1.2602,0.15165,-0.979408,0.828725,-0.272536,0.875088,-0.133288,0.8359,0.0730623,-1.23668,1.94132,1.14156,-0.782155,-2.45062,-0.846533,-0.570667,-0.713034
%E6%9D%B1%E5%8D%97%E3%82%A2%E3%82%B8%E3%82%A2,-0.0908393,-1.5411,0.23801,0.369231,0.716901,-2.55464,0.667838,1.17536,0.642788,0.250887,-1.60031,0.210862,0.373326,-2.81048,0.333383,0.941867,1.16923,-0.0290636,0.591474,0.180787,0.16062,-0.786886,1.32947,0.418274,-1.3927,-0.461202,-1.34917,0.0431115,-0.891431,1.57377,1.89289,0.404345,-1.61623,-1.23307,0.285965,-1.44661,1.39139,-0.152879,1.18157,-0.749587,1.23197,0.488347,-1.16548,3.04354,1.43056,-1.22663,-2.54331,-0.328765,-0.584898,-1.46614
%E3%82%A2%E3%83%A1%E3%83%AA%E3%82%AB%E5%90%88%E8%A1%86%E5%9B%BD%E5%A4%A7%E7%B5%B1%E9%A0%98,-0.248994,-1.4358,0.0267321,0.337724,0.852582,-2.55143,0.568595,1.14794,0.782111,0.241788,-1.6345,0.181595,0.260652,-3.12716,0.601106,0.794542,1.12678,-0.0618128,0.65922,0.084661,0.384555,-0.751313,1.13443,0.532458,-1.52041,-0.192455,-1.29573,0.348231,-0.992738,1.64785,1.81199,0.50538,-1.37247,-1.29704,0.307966,-1.62176,1.46134,0.0409326,1.14667,-0.846098,1.04995,0.437405,-1.21947,2.97649,1.44715,-1.36278,-2.80554,-0.223828,-0.517697,-1.47119
Opera_Coast,-0.314176,-1.48644,0.0712142,0.472031,0.469729,-2.05199,0.599453,1.18636,0.795482,0.0132766,-1.46519,0.547371,0.268228,-2.73484,0.502322,0.583728,0.999513,-0.168327,0.486983,0.228566,0.359104,-0.794806,1.01494,0.567506,-1.38238,-0.18079,-1.33832,0.208603,-0.807501,1.47801,1.77111,0.708434,-1.21754,-1.36302,0.474376,-1.40889,1.23872,-0.385645,1.02165,-0.821135,1.0774,0.305458,-1.3571,2.7776,1.37777,-1.08129,-2.55857,-0.448895,-0.584566,-1.20406
2015%E5%B9%B4,-0.0499116,-1.28642,0.0272946,0.433324,0.819525,-1.80618,0.44946,1.0877,0.683515,0.0516932,-1.19978,0.0619554,0.485115,-2.79964,0.337443,0.761376,1.05466,-0.156093,0.725866,0.0451326,0.6825,-0.54405,0.679483,0.158395,-1.02803,0.0209169,-1.33547,-0.331502,-0.914791,1.46806,1.40418,0.747907,-1.2223,-1.10097,0.443533,-1.14868,1.02298,0.0131084,1.59393,-0.274231,0.874497,0.72401,-1.21556,2.13959,1.13365,-0.942539,-2.14371,-0.69759,-0.575903,-1.10643
%E3%83%A1%E3%82%AD%E3%82%B7%E3%82%B3%E6%B9%BE,-0.068574,-1.44073,0.0984986,0.385928,0.524157,-1.82388,0.644111,1.16948,0.752981,0.201101,-1.32047,0.394671,0.642258,-2.55544,0.332353,0.798347,0.721709,-0.479028,0.702949,0.137178,0.340645,-0.747305,0.865698,0.344141,-0.943268,0.108548,-1.13074,0.0795511,-0.79369,1.63564,1.52088,0.638091,-0.951979,-1.39458,0.194663,-1.02026,1.20412,-0.0342221,1.17995,-0.371548,0.783871,0.112126,-0.98459,2.2662,1.0619,-0.920098,-2.6793,-0.782361,-0.61087,-0.879545
%E3%83%AC%E3%83%B3%E3%83%89%E3%83%AA%E3%83%BC%E3%82%B9%E6%B3%95,-0.147082,-1.33857,0.330267,0.581505,0.486086,-1.8762,0.415241,1.41861,0.740529,0.14971,-1.35651,0.469606,0.39322,-2.59406,0.385278,0.701961,0.736805,-0.298416,0.682223,0.176977,0.350629,-0.711899,0.848818,0.339292,-1.0224,-0.0439432,-1.32211,0.0629449,-0.71837,1.63323,1.33756,0.894822,-0.971598,-1.22975,0.34493,-1.11699,0.8561,-0.312542,1.12576,-0.5028,0.930927,0.139967,-1.38353,2.36742,1.27313,-1.06892,-2.41544,-0.59903,-0.491982,-0.93426
%E3%82%B3%E3%83%B3%E3%83%94%E3%83%A5%E3%83%BC%E3%82%BF%E3%83%8D%E3%83%83%E3%83%88%E3%83%AF%E3%83%BC%E3%82%AF,-0.415164,-1.35537,0.94173,0.569079,0.110148,-2.31394,0.140968,1.6946,1.20354,0.215574,-1.55539,0.197455,0.654698,-2.21725,0.457804,0.455667,0.435845,-0.728144,0.973961,0.194557,0.152233,-0.782083,0.989052,0.457587,-0.97126,0.00645211,-1.3202,0.116828,-0.70976,2.01632,1.36352,1.23169,-1.12315,-1.42509,-0.157003,-1.11323,0.639808,-0.163897,0.856995,-0.364321,0.594158,0.0249644,-1.33716,2.81865,1.1364,-0.906419,-3.11358,-0.658388,-0.510278,-0.823799
%E3%83%95%E3%83%A9%E3%83%B3%E3%82%AF%E3%83%AA%E3%83%B3%E3%83%BB%E3%83%AB%E3%83%BC%E3%82%BA%E3%83%99%E3%83%AB%E3%83%88,-0.205193,-1.31681,0.224137,0.339101,0.628385,-2.55084,0.573329,1.36076,0.882636,0.252332,-1.48279,0.0421818,0.235833,-2.92452,0.59404,0.640206,0.835063,-0.061347,0.791892,0.0122744,0.379361,-0.659266,1.19731,0.568965,-1.26944,-0.292003,-1.30973,0.424194,-0.953009,1.75884,1.59484,0.587867,-1.33111,-1.39987,0.116044,-1.48521,1.49696,-0.00412649,1.12968,-0.759402,0.929459,0.206704,-1.20222,2.95086,1.49669,-1.45374,-2.84473,-0.336272,-0.478854,-1.39454
Waterfox,-0.234134,-1.3698,0.163974,0.419338,0.713383,-2.37341,0.567956,1.25569,1.07295,0.0998652,-1.6854,0.285378,0.19385,-2.99922,0.521329,0.700378,1.14099,-0.0728518,0.589656,0.152207,0.188696,-0.721842,1.31194,0.517436,-1.32129,-0.367225,-1.46089,0.174592,-1.00311,1.64633,1.84955,0.604402,-1.39537,-1.32636,0.40613,-1.52155,1.43166,-0.153502,0.90821,-0.962495,1.20627,0.313632,-1.28149,3.05519,1.58904,-1.21982,-2.90458,-0.277685,-0.480898,-1.59392
%E3%83%B4%E3%82%A3%E3%82%B7%E3%83%BC%E6%94%BF%E6%A8%A9,-0.243113,-1.20537,0.0418129,0.626796,0.610406,-2.03363,0.575617,1.39819,0.864169,0.0764959,-1.15617,0.137829,0.00495424,-2.96601,0.425275,0.569541,0.804234,-0.240447,0.689735,-0.0157629,0.528801,-0.389264,0.790593,0.285485,-1.09765,0.0562052,-1.40646,0.0996367,-0.899082,1.51722,1.15437,0.7255,-1.0585,-1.22667,0.221266,-1.29492,1.0526,-0.21254,1.21125,-0.496883,0.947139,0.268018,-1.42036,2.42904,1.25855,-1.38227,-2.59651,-0.588323,-0.471699,-1.18133
%E3%83%95%E3%83%A9%E3%83%B3%E3%82%B9%E8%AA%9E,0.437653,-1.12775,-0.0733,0.289234,0.795564,-1.64321,0.495398,1.18786,0.925659,0.324834,-1.25655,0.0514932,0.790267,-2.81248,0.218542,0.729195,0.524114,-0.985964,1.10941,0.132295,0.45164,-0.54633,0.760031,0.279686,-0.863938,0.101572,-1.20282,0.195409,-1.01343,2.02304,1.47552,0.70391,-0.599104,-1.47144,-0.164034,-0.996744,1.28289,0.187578,1.37203,-0.220645,0.577663,0.0504017,-0.879162,1.97072,0.996435,-0.834311,-2.85308,-0.813759,-0.455857,-0.874316
%E3%81%BB%E3%81%BC%E3%83%86%E3%82%AD%E3%82%B9%E3%83%88%E3%83%96%E3%83%A9%E3%82%A6%E3%82%B6,0.0560709,-1.19202,-0.0278693,0.424257,0.844362,-2.36801,0.44899,1.30007,0.853414,0.268922,-1.64779,0.099418,0.101192,-2.88965,0.596416,0.787363,1.21117,-0.12809,0.526205,-0.0438366,0.246118,-0.535568,1.34745,0.343383,-1.24141,-0.1225,-1.47272,-0.114596,-0.84524,1.42536,1.56458,0.488826,-1.42815,-1.06054,0.249291,-1.46203,1.02672,0.117649,1.03095,-0.823611,1.07613,0.213569,-1.19374,2.66806,1.55904,-1.43213,-2.65061,-0.241263,-0.641853,-1.23665
%E3%83%97%E3%83%AC%E3%82%A4%E3%83%90%E3%83%83%E3%82%AF_(%E5%B0%8F%E8%AA%AC),-0.0926183,-1.38928,0.294957,0.442053,0.430121,-1.83661,0.590821,1.44677,0.7446,0.170301,-1.32685,0.351134,0.532964,-2.47925,0.342423,0.767868,0.739312,-0.591809,0.674233,0.075533,0.430074,-0.695071,0.93137,0.284983,-0.88805,0.17554,-1.2854,0.0122369,-0.738174,1.60056,1.49527,0.744168,-0.963709,-1.25253,0.139856,-1.00243,1.03629,-0.174738,1.1215,-0.334199,0.834712,0.0486433,-1.09836,2.0784,1.21778,-0.844596,-2.62081,-0.749583,-0.611443,-0.855386
%E3%83%88%E3%82%A6%E3%83%A2%E3%83%AD%E3%82%B3%E3%82%B7,-0.180615,-1.58506,0.00178653,0.226849,1.0734,-2.37258,0.550716,0.929361,0.62393,0.177042,-1.66798,0.426916,0.405074,-3.07844,0.62997,1.02346,1.3378,-0.026199,0.566765,0.168197,0.420546,-0.808946,1.37637,0.674433,-1.4316,-0.209707,-1.64432,0.127536,-0.953366,1.51682,2.0086,0.329845,-1.42475,-1.23066,0.728023,-1.56612,1.28005,0.10524,1.04976,-0.737116,1.0033,0.559734,-1.27669,2.89356,1.32999,-1.27606,-2.57009,-0.301999,-0.678474,-1.30938
%E4%BA%9C%E5%AF%92%E5%B8%AF,-0.332938,-1.35837,-0.0616012,0.534313,0.697166,-1.89621,0.672954,1.33975,0.656748,0.0920149,-1.30064,0.394372,0.328515,-3.1599,0.358898,0.749263,1.25161,-0.075471,0.446422,0.0802555,0.611476,-0.609578,0.973133,0.166477,-1.33182,-0.168615,-1.59866,-0.371983,-0.636791,1.12304,1.78715,0.718828,-1.10875,-0.830298,0.654834,-1.512,0.967943,-0.352876,1.2326,-0.662209,1.14199,0.432122,-1.38768,2.54028,1.24715,-1.00942,-2.36449,-0.44184,-0.747072,-0.938316
Joyent,-0.387882,-1.48689,0.28914,0.354735,0.521466,-2.43426,0.696861,1.35697,1.01455,0.144453,-1.71488,0.379261,0.372507,-2.86088,0.577138,0.896998,1.06724,-0.103266,0.60979,0.0397333,0.101869,-0.777621,1.42725,0.580503,-1.23036,-0.220084,-1.41267,0.0738079,-0.943254,1.68194,1.80346,0.512504,-1.47494,-1.31443,0.429783,-1.41937,1.36089,-0.175422,0.977963,-0.907065,1.1398,0.26665,-1.2923,3.14127,1.58872,-1.2972,-2.85398,-0.325658,-0.533924,-1.38897
%E6%86%B2%E6%B3%95,-0.542217,-1.70175,0.463687,0.725918,0.143585,-1.8687,0.360895,1.26589,0.741205,0.194205,-1.7364,0.620913,0.310391,-2.21022,0.297451,0.458913,0.731792,-0.1219,0.317589,0.1733,0.228881,-0.814716,0.777086,0.512583,-1.16636,0.0228955,-1.02728,-0.06833,-0.397861,1.42514,1.13115,0.929885,-1.30345,-1.2617,0.502104,-1.2233,0.442564,-0.488517,0.520331,-0.487629,0.955073,0.373758,-1.66325,2.68033,1.14237,-0.953904,-2.18214,-0.422815,-0.517583,-0.74468
1995%E5%B9%B4,-0.19407,-1.31897,-0.127131,0.571825,1.09339,-1.64448,0.457721,1.36378,0.442882,-0.0400287,-1.24761,0.504373,0.00378009,-2.92227,0.545364,0.762838,1.2273,-0.0759142,0.405114,0.165611,0.652152,-0.583122,0.714082,0.258214,-1.21161,0.0955662,-1.48004,-0.0510502,-0.787096,1.36693,1.38107,0.659076,-1.26606,-0.927449,0.648097,-1.2699,0.925358,-0.0512615,1.5227,-0.521064,1.1124,0.420834,-1.4438,2.12206,1.15109,-1.17029,-2.09132,-0.765822,-0.710315,-1.23379
%E6%AD%BB%E5%88%91,-0.553898,-1.68261,0.581841,0.663132,0.25351,-2.12726,0.19817,1.47288,0.711348,0.0801046,-1.71398,0.651885,0.258904,-2.33892,0.359242,0.542904,0.765158,-0.112605,0.442541,0.335288,0.126406,-0.900414,0.961458,0.567386,-1.24097,-0.349247,-1.40267,-0.0804331,-0.548089,1.5635,1.3629,1.01057,-1.2812,-1.25773,0.503844,-1.29425,0.588259,-0.442894,0.794922,-0.641337,0.974655,0.32743,-1.77413,2.85704,1.26899,-1.01876,-2.43764,-0.459633,-0.622042,-0.958999
1_E8,-0.523397,-1.35389,-0.120156,0.200792,0.424455,-2.1759,0.804614,0.87154,1.04394,-0.108915,-0.883772,0.301138,0.397495,-3.16099,0.442566,0.637955,0.898043,-0.239707,0.867102,-0.10477,0.65896,-0.469255,0.829539,0.246217,-0.891364,0.03851,-1.64862,-0.119915,-0.851373,0.999936,1.64555,0.5909,-1.10571,-1.3687,0.596084,-1.2173,1.21622,-0.224288,1.34357,-0.237566,0.829194,0.246733,-1.4627,2.40512,1.08674,-1.06007,-2.51099,-1.02656,-0.43407,-0.853139
1970%E5%B9%B4,-0.113326,-1.34498,0.0452161,0.532115,1.06058,-1.83762,0.580804,1.34969,0.513403,0.0493379,-1.23671,0.36269,0.0846382,-2.88185,0.49195,0.722705,1.25159,-0.014667,0.477877,0.194758,0.611302,-0.493048,0.931411,0.359078,-1.27145,0.00380931,-1.41659,-0.0163584,-0.805925,1.29008,1.47579,0.702737,-1.39598,-0.904155,0.577677,-1.25894,1.05731,0.0637223,1.54769,-0.395862,1.14638,0.506028,-1.2863,2.20362,1.26789,-1.0111,-2.30006,-0.6757,-0.723996,-1.29065
%E7%8B%82%E9%A8%92%E3%81%AE20%E5%B9%B4%E4%BB%A3,-0.600756,-1.46413,0.763685,0.684207,0.232408,-2.15517,0.313564,1.54932,0.884511,0.110645,-1.68818,0.492939,0.427897,-2.32523,0.385726,0.589818,0.601799,-0.15293,0.604517,0.250852,0.145407,-0.846027,0.998414,0.455273,-1.08617,-0.128621,-1.48345,-0.0185362,-0.591117,1.75765,1.38035,1.10117,-1.30312,-1.23182,0.328141,-1.19869,0.584565,-0.488347,0.827261,-0.515937,0.964281,0.212275,-1.65526,2.92022,1.21077,-0.982403,-2.72928,-0.478412,-0.579976,-0.987742
S,-0.464236,-1.66751,0.0703592,0.172196,0.623202,-2.3279,0.66897,0.80852,0.533721,0.0268294,-1.30163,0.574032,0.275689,-2.9293,0.492702,0.739047,1.39882,-0.0572373,0.362683,0.115664,0.429634,-0.679748,1.30414,0.680161,-1.41255,-0.495477,-1.57356,0.0530282,-0.876794,1.07688,2.13187,0.31641,-1.53127,-1.23313,0.77195,-1.3475,1.38571,-0.245799,1.08414,-0.718402,1.28771,0.418857,-1.39834,2.92709,1.45144,-1.10078,-2.4342,-0.415484,-0.699952,-1.25699
%E7%9C%9F%E7%8F%A0%E6%B9%BE%E6%94%BB%E6%92%83,-0.203949,-1.42032,0.133485,0.57342,0.740572,-2.30056,0.376114,1.45205,0.666637,0.243381,-1.52608,0.141785,0.0691526,-2.84746,0.665408,0.673548,0.847695,-0.162429,0.699909,0.108975,0.318807,-0.635007,1.00791,0.405112,-1.17049,-0.239935,-1.27696,0.328629,-0.936092,1.59289,1.27467,0.670694,-1.26568,-1.3756,0.234388,-1.43799,1.40827,-0.0891067,1.25132,-0.651222,0.990475,0.368246,-1.35985,2.64033,1.40487,-1.53224,-2.57924,-0.481659,-0.491046,-1.23652
%E3%82%A6%E3%82%A7%E3%83%96%E3%83%9A%E3%83%BC%E3%82%B8,-0.126218,-1.47793,0.174235,0.34773,0.406295,-1.99246,0.664948,1.31483,0.859744,0.107497,-1.33871,0.38159,0.580654,-2.61302,0.415811,0.774417,0.777482,-0.574996,0.65339,0.0447929,0.418036,-0.755638,1.12498,0.426006,-0.907544,0.0679811,-1.27458,0.1021,-0.790845,1.53448,1.66223,0.66119,-1.15267,-1.42515,0.213822,-1.13089,1.18593,-0.288818,1.06214,-0.441646,0.88536,0.214561,-1.16425,2.45273,1.31897,-0.957252,-2.5863,-0.806494,-0.494552,-0.978225
1940%E5%B9%B4,-0.290241,-1.27764,0.10034,0.455506,1.08859,-1.78808,0.593416,1.52209,0.579929,0.0168425,-1.2798,0.366656,-0.0355637,-2.89158,0.543497,0.714422,1.22529,0.121975,0.588602,0.238246,0.619453,-0.481898,0.980791,0.346304,-1.27208,-0.0203771,-1.45021,-0.0160625,-1.00543,1.37704,1.39099,0.730647,-1.48252,-0.851582,0.646057,-1.28358,1.00868,0.0548884,1.4885,-0.428806,1.18572,0.600903,-1.39551,2.36535,1.28885,-1.06477,-2.30307,-0.620451,-0.654701,-1.41691
%C5%83,-0.114637,-1.22171,-0.0336356,0.284296,0.904625,-2.02906,0.697437,1.08374,0.772601,0.125929,-1.21811,0.208226,0.429473,-3.11754,0.417004,0.790846,1.14663,-0.38716,0.785877,-0.0473286,0.693718,-0.506434,1.10956,0.247484,-1.19686,0.0316368,-1.6234,0.0448084,-0.909754,1.44927,1.94362,0.501896,-1.2573,-1.14624,0.313149,-1.21409,1.35891,-0.0176758,1.3033,-0.360346,0.971245,0.272686,-1.11809,2.64555,1.27404,-0.903389,-2.73004,-0.599136,-0.599035,-1.17912
Cloud_Foundry,-0.585528,-1.53617,0.278658,0.397717,0.283414,-2.26148,0.624613,1.2811,0.725684,0.00180154,-1.40618,0.459375,0.156326,-2.53029,0.469747,0.660101,0.954905,0.0351551,0.412095,0.0860424,0.109639,-0.711803,1.24725,0.464853,-1.17549,-0.406083,-1.53813,-0.0598343,-0.749538,1.29385,1.71172,0.566432,-1.34485,-1.2942,0.492349,-1.4831,1.1648,-0.565814,0.828384,-0.919819,1.29128,0.258231,-1.41347,2.82231,1.37951,-0.995542,-2.3381,-0.351879,-0.384975,-1.19818
%E3%83%86%E3%83%AC%E3%83%93%E7%95%AA%E7%B5%84,-0.517978,-1.52173,0.63285,0.65983,0.335529,-2.21405,0.37539,1.44815,0.944141,0.132594,-1.66812,0.4611,0.380835,-2.46033,0.446793,0.658507,0.770376,-0.136355,0.650164,0.29922,0.192398,-0.739788,1.03639,0.434838,-1.11951,-0.247041,-1.38786,-0.0878505,-0.664682,1.60312,1.38128,1.065,-1.2535,-1.22651,0.382828,-1.21758,0.673042,-0.301985,0.95618,-0.558025,0.977002,0.265424,-1.57658,2.86224,1.26598,-1.0513,-2.75005,-0.469681,-0.588956,-0.966513
%E8%8A%B1%E5%BD%A2,-0.232299,-1.66302,0.247198,0.37765,0.569935,-2.35924,0.714965,1.17785,0.509844,0.149072,-1.43793,0.486978,0.380728,-2.74197,0.379439,0.945792,1.10961,-0.0677498,0.433948,0.17761,0.28623,-0.762821,1.33423,0.3989,-1.26392,-0.301935,-1.36648,0.0142124,-0.923077,1.42499,1.84915,0.481374,-1.40286,-1.2307,0.508975,-1.41632,1.27116,-0.199467,1.09351,-0.720126,1.17065,0.349883,-1.28338,2.64951,1.44733,-1.13277,-2.40788,-0.516539,-0.633034,-1.17153
%E3%83%81%E3%82%A7%E3%82%B3%E8%AA%9E%E3%82%A2%E3%83%AB%E3%83%95%E3%82%A1%E3%83%99%E3%83%83%E3%83%88,-0.741549,-1.50189,0.352829,0.333605,0.666717,-2.01456,0.693339,0.940596,0.769401,0.343982,-1.54959,0.84513,0.362384,-3.29428,0.624873,0.633847,1.07272,-0.137378,0.551699,0.104541,0.649016,-0.485835,1.20193,0.578788,-1.23891,0.0762753,-1.83145,0.173542,-0.814462,1.25392,1.87744,0.558892,-1.25578,-1.28412,0.897853,-1.23644,1.27674,-0.254338,0.909577,-0.504054,1.03506,0.269381,-1.50715,3.05634,1.29992,-1.08357,-2.71225,-0.411995,-0.674878,-1.07146
%E5%A5%B3%E6%80%A7%E5%8F%82%E6%94%BF%E6%A8%A9,0.0671709,-1.16421,0.219123,0.404927,0.900473,-1.80041,0.69346,1.58996,0.801743,0.395198,-1.36249,-0.0216602,0.59495,-2.65993,0.320543,0.808735,0.770478,-0.650443,0.873019,0.0905245,0.569165,-0.367481,0.972324,0.10056,-0.95058,0.0959144,-1.22815,0.0251176,-0.978499,1.76604,1.50055,0.685694,-1.07632,-1.16102,-0.0976589,-1.05093,1.32284,0.143469,1.39567,-0.250251,0.725562,0.389816,-0.892542,2.17141,1.36121,-0.782299,-2.80983,-0.716362,-0.521505,-1.04751
%E7%84%A1%E5%AE%97%E6%95%99,-0.523026,-1.56576,0.426718,0.42388,0.40535,-2.20829,0.548089,1.26936,0.537039,0.203622,-1.42496,0.485189,0.210885,-2.56831,0.464057,0.821524,0.930114,-0.0382418,0.417114,0.234153,0.145547,-0.616353,1.18624,0.548645,-1.11883,-0.379279,-1.34085,0.189177,-0.775674,1.25912,1.36328,0.541213,-1.22418,-1.23393,0.611213,-1.35224,1.11485,-0.36938,0.926831,-0.721331,1.19867,0.276974,-1.51576,2.67172,1.32532,-1.13937,-2.2068,-0.294039,-0.547445,-1.15855
%E8%87%AA%E7%94%B1%E3%83%95%E3%83%A9%E3%83%B3%E3%82%B9,-0.401051,-1.33417,0.415219,0.616356,0.424718,-2.02723,0.407315,1.53689,0.699156,0.157768,-1.57458,0.504928,0.272705,-2.5976,0.422424,0.563604,0.709695,-0.0665827,0.598824,0.226795,0.328851,-0.707918,0.908732,0.525029,-1.20437,-0.0423959,-1.40409,0.179391,-0.636732,1.60893,1.34173,0.909813,-1.3127,-1.17526,0.36362,-1.29977,0.795515,-0.378164,1.02393,-0.521925,0.97393,0.19004,-1.58183,2.77983,1.24971,-1.22872,-2.58917,-0.379341,-0.581995,-1.05401
%E6%9C%9D%E9%AE%AE%E6%88%A6%E4%BA%89,-0.148909,-1.41471,0.0956344,0.519893,0.645006,-2.41526,0.467201,1.37303,0.760883,0.128776,-1.44601,0.201638,-0.0832327,-2.84693,0.566827,0.734562,0.841644,-0.0518453,0.675785,0.0897045,0.169931,-0.705529,1.02714,0.488773,-1.16375,-0.3135,-1.37921,0.242757,-0.948138,1.66761,1.39017,0.515597,-1.37887,-1.44369,0.218028,-1.51918,1.3803,-0.284529,1.13909,-0.791763,1.0826,0.210061,-1.3706,2.65762,1.4041,-1.59706,-2.61716,-0.34695,-0.403661,-1.40037
%E3%82%A2%E3%83%B3%E3%82%B0%E3%83%AD%E3%83%BB%E3%82%B5%E3%82%AF%E3%82%BD%E3%83%B3%E4%BA%BA,-0.0551818,-1.10646,0.29585,0.367976,0.405036,-1.94841,0.743634,1.28141,0.956017,0.162338,-1.20034,0.136932,0.623684,-2.52866,0.271675,0.722214,0.589661,-0.483581,0.951721,0.0575137,0.401613,-0.683494,0.871163,0.240226,-0.898565,0.135885,-1.28419,0.151601,-0.892941,1.76902,1.4949,0.716945,-0.944965,-1.28977,-0.0529207,-1.05214,1.01532,-0.196453,1.18933,-0.178386,0.750525,0.0525375,-1.06419,2.28761,1.06083,-0.964286,-2.70977,-0.701277,-0.398372,-0.900831
%E8%B7%AF%E4%B8%8A_(%E5%B0%8F%E8%AA%AC),-0.212894,-1.3893,0.323684,0.357287,0.366363,-2.02808,0.647694,1.34335,0.697039,0.150824,-1.30799,0.366884,0.514659,-2.43843,0.369976,0.760471,0.717033,-0.293302,0.627951,0.0885803,0.381344,-0.656081,1.01984,0.468111,-0.96185,0.0399832,-1.36021,0.101352,-0.728076,1.52544,1.49209,0.737493,-1.09737,-1.22034,0.275201,-1.13323,1.12893,-0.217802,1.0931,-0.370897,0.865706,0.147294,-1.17293,2.31708,1.2762,-0.960737,-2.58142,-0.634499,-0.589582,-0.992711
%E8%A5%BF%E9%83%A8%E9%96%8B%E6%8B%93%E6%99%82%E4%BB%A3,-0.123653,-1.43534,0.0519005,0.493023,0.998178,-2.01371,0.446651,1.24436,0.878014,0.346192,-1.36913,0.137305,0.462578,-3.15398,0.414701,0.664562,1.11589,-0.35242,0.633151,0.0551987,0.6705,-0.686891,0.731587,0.295662,-1.42307,0.13721,-1.10608,-0.0351757,-0.969623,1.48918,1.55949,0.748626,-1.01995,-0.919889,0.202796,-1.27776,0.87085,0.231955,1.33268,-0.273923,0.859596,0.495362,-1.25998,2.27497,1.13157,-1.04398,-2.5737,-0.663411,-0.633118,-1.08384
%E3%83%9E%E3%83%AA%E3%82%A2%E3%83%8A%E8%AB%B8%E5%B3%B6,-0.161415,-1.53979,0.250589,0.406576,0.445477,-2.05485,0.578233,1.33108,0.838493,0.268495,-1.4603,0.412724,0.52088,-2.6253,0.270534,0.833861,0.745551,-0.55906,0.766922,0.210131,0.325518,-0.865975,0.912578,0.247903,-1.02404,-0.0352134,-1.25583,0.0377841,-0.907715,1.76546,1.51331,0.717256,-1.06262,-1.31781,0.197583,-1.11684,1.17574,-0.273651,1.10052,-0.367163,0.878058,0.120808,-1.27298,2.39758,1.2032,-0.92005,-2.70215,-0.807511,-0.493304,-0.988793
%E3%83%97%E3%83%AD%E3%82%AD%E3%82%B7%E8%87%AA%E5%8B%95%E8%A8%AD%E5%AE%9A,-0.367608,-1.39225,0.42699,0.320171,0.186589,-2.13077,0.592844,1.52782,0.890398,0.180271,-1.4344,0.428218,0.570445,-2.45002,0.38807,0.670974,0.708508,-0.468875,0.708559,0.0990406,0.221765,-0.830227,0.942238,0.424911,-0.934242,-0.00155815,-1.31359,-0.0320156,-0.707328,1.55352,1.62546,0.790455,-1.1001,-1.3352,0.172101,-1.20155,1.03058,-0.40212,0.954209,-0.531655,0.864779,-0.0867681,-1.1181,2.5826,1.17649,-0.853102,-2.86693,-0.61796,-0.45397,-0.90428
1814%E5%B9%B4,-0.0564106,-1.54127,0.0416657,0.537284,0.585968,-1.6253,0.573139,1.13106,0.661348,-0.0818357,-1.1203,0.502659,0.223423,-2.59806,0.224252,0.768444,0.955124,-0.233411,0.536063,0.111518,0.476566,-0.683528,0.782862,0.265178,-1.1302,0.145685,-1.40078,-0.135325,-0.83676,1.55753,1.35744,0.744863,-1.09729,-1.02029,0.537239,-1.12824,0.879104,-0.294076,1.17222,-0.305192,0.995888,0.408307,-1.41026,2.13967,1.09482,-0.886386,-2.12152,-0.773636,-0.545629,-0.941213
%E3%83%8B%E3%83%A5%E3%83%BC%E3%83%A1%E3%82%AD%E3%82%B7%E3%82%B3%E5%B7%9E,-0.148785,-1.41096,0.0283317,0.385329,0.518305,-2.22361,0.593009,1.07083,1.02993,0.155484,-1.11696,0.0663091,0.315482,-2.98896,0.443763,0.649573,0.857922,-0.418488,0.879021,-0.0356886,0.483603,-0.549746,0.928008,0.367968,-0.998175,0.0216191,-1.37217,0.0908367,-0.982884,1.50496,1.43911,0.565973,-1.04144,-1.48212,0.238091,-1.27855,1.34331,-0.0440348,1.21888,-0.447181,0.787471,0.218741,-1.19,2.4949,1.26201,-1.17367,-2.68245,-0.719409,-0.3987,-1.05417
S60,-0.19834,-1.4216,0.355674,0.398913,0.433075,-2.26841,0.603363,1.33598,1.02089,0.141221,-1.20354,0.265664,0.464723,-2.84828,0.354725,0.709865,0.743417,-0.392376,0.778973,0.0420937,0.466502,-0.51436,1.11981,0.270825,-1.04807,-0.0815948,-1.63045,-0.0300432,-0.895709,1.62383,1.67059,0.773841,-1.15761,-1.4064,0.18323,-1.34719,1.21737,-0.255013,0.976464,-0.526902,0.917419,0.118345,-1.26981,2.50145,1.22246,-0.895748,-2.74782,-0.655155,-0.371162,-1.10486
%E7%99%BD%E9%AF%A8,-0.185012,-1.46768,0.145832,0.445053,0.622545,-2.1518,0.578825,1.22979,0.758118,0.0589057,-1.4522,0.450217,0.199,-2.78152,0.407634,0.740284,1.08258,-0.0118875,0.581461,0.260755,0.362437,-0.709845,1.11705,0.521614,-1.31972,-0.229224,-1.42033,0.177422,-0.901685,1.55348,1.71508,0.699227,-1.26849,-1.25297,0.548516,-1.43489,1.28729,-0.245994,1.06725,-0.782569,1.06379,0.382496,-1.34831,2.83713,1.43389,-1.19258,-2.63445,-0.390822,-0.601803,-1.29668
%E3%83%93%E3%83%AB%E3%83%BB%E3%82%AF%E3%83%AA%E3%83%B3%E3%83%88%E3%83%B3,-0.333196,-1.41642,0.0849407,0.450232,0.701614,-2.36645,0.470966,1.14972,0.772577,0.137951,-1.36944,0.27814,0.0526945,-2.95697,0.654716,0.627038,0.816076,0.0228564,0.662652,0.108043,0.514308,-0.622598,1.01489,0.427291,-1.35559,-0.186793,-1.44183,0.428885,-0.977192,1.62181,1.44633,0.597699,-1.30392,-1.32181,0.316092,-1.48767,1.44454,-0.222815,1.23927,-0.701559,1.00146,0.220621,-1.44342,2.71404,1.39491,-1.55157,-2.54156,-0.435687,-0.472984,-1.35036
%E3%82%A2%E3%83%83%E3%83%97%E3%83%AB%E3%83%91%E3%82%A4,-0.109559,-1.31686,0.42322,0.39727,0.480102,-2.28507,0.641145,1.39649,1.02953,0.2385,-1.33343,0.179168,0.525494,-2.61039,0.418605,0.800897,0.796208,-0.393933,0.812911,0.153837,0.349464,-0.735923,1.16328,0.428722,-1.00501,-0.121604,-1.2759,0.0947831,-0.944416,1.74119,1.57752,0.702465,-1.20733,-1.3344,0.0889908,-1.16464,1.1211,-0.0135832,1.08025,-0.465631,0.943696,0.127561,-1.10686,2.5294,1.25438,-1.17175,-2.81448,-0.658532,-0.484232,-1.17524
Arora,-0.0507425,-1.37311,-0.0596911,0.326716,0.715502,-2.19378,0.650558,1.31904,1.06759,-0.0671607,-1.58079,0.297323,0.312611,-2.99631,0.426894,0.836662,1.12279,-0.205375,0.736122,0.159201,0.349031,-0.717237,1.29137,0.508268,-1.15787,-0.313806,-1.50683,0.0945055,-0.966713,1.64118,1.92137,0.623489,-1.27888,-1.34213,0.36938,-1.50385,1.56611,-0.221672,1.04513,-0.906877,1.1242,0.292625,-1.21169,2.79998,1.51488,-1.16545,-2.9797,-0.45939,-0.48398,-1.46728
%E3%82%AB%E3%83%AD%E3%83%AA%E3%83%B3%E8%AB%B8%E5%B3%B6,-0.321009,-1.43804,0.19666,0.347316,0.645217,-2.47895,0.731178,1.30288,0.960285,0.124704,-1.53031,0.228943,0.270911,-2.87089,0.536621,0.851904,1.06108,-0.0405423,0.735109,0.216613,0.269291,-0.72131,1.22035,0.533801,-1.29152,-0.31934,-1.41595,0.327952,-1.08376,1.76816,1.87381,0.54493,-1.26302,-1.39807,0.25896,-1.51456,1.68055,-0.168875,1.07483,-0.972585,1.10327,0.176336,-1.14949,2.89882,1.51824,-1.35324,-3.04379,-0.375721,-0.53701,-1.48451
WebCL,-0.0441276,-1.40995,0.227481,0.343062,0.683396,-2.23761,0.758159,1.42277,0.951113,0.227821,-1.45647,0.0950647,0.492151,-2.82242,0.383435,0.923622,0.894018,-0.443198,0.849174,0.116556,0.404506,-0.609215,1.12247,0.343195,-1.06576,-0.0965557,-1.41509,0.216766,-1.06732,1.88826,1.755,0.594143,-1.22046,-1.43508,0.0738968,-1.33929,1.49105,-0.0591015,1.13392,-0.60698,0.947305,0.283454,-1.13566,2.67257,1.4174,-0.951962,-2.8593,-0.577806,-0.43028,-1.31167
1946%E5%B9%B4,-0.292224,-1.32182,0.0462318,0.511907,1.10685,-1.70894,0.564466,1.48018,0.65634,0.0289825,-1.3746,0.338191,0.0441272,-2.87724,0.504119,0.722245,1.23797,0.0246818,0.486595,0.232899,0.730452,-0.499253,0.956973,0.209174,-1.22694,0.0781269,-1.33455,-0.0932374,-0.967925,1.35144,1.28512,0.745298,-1.38684,-0.845884,0.687856,-1.27738,0.925649,0.114083,1.38044,-0.402073,1.10861,0.717194,-1.39626,2.25133,1.22188,-1.00011,-2.25248,-0.673941,-0.662193,-1.32183
%E3%83%92%E3%82%B9%E3%83%91%E3%83%8B%E3%83%83%E3%82%AF,-0.268771,-1.31146,0.399178,0.417103,0.446424,-2.11826,0.544214,1.32515,0.872991,0.258592,-1.53667,0.413941,0.481049,-2.57684,0.35119,0.720279,0.724799,-0.306675,0.665405,0.0951005,0.284526,-0.792178,1.07253,0.49161,-1.09427,-0.0392635,-1.40232,0.0735198,-0.743665,1.69688,1.57174,0.691053,-1.29464,-1.27181,0.219862,-1.17548,1.01759,-0.220936,0.898862,-0.450255,0.92727,0.0497909,-1.29067,2.71707,1.24909,-1.09469,-2.75279,-0.504683,-0.476797,-1.08961
WebPositive,-0.317374,-1.45219,0.138805,0.396189,0.516578,-2.20636,0.704824,1.13695,0.874731,0.11028,-1.60767,0.510472,0.391871,-2.93964,0.464865,0.76236,1.11584,-0.0720143,0.51693,0.246823,0.359553,-0.750779,1.14194,0.563812,-1.33645,-0.234768,-1.51441,0.165579,-0.857923,1.57569,1.91474,0.637575,-1.36819,-1.341,0.557548,-1.41934,1.33782,-0.366322,0.975269,-0.854967,1.18619,0.314507,-1.47866,3.02643,1.47642,-1.01109,-2.68496,-0.327306,-0.516744,-1.35228
%E7%8F%BE%E4%BB%A3%E6%80%9D%E6%83%B3,-0.158919,-1.31832,0.0132949,0.503555,0.783008,-2.03381,0.621764,1.19244,0.854282,0.23256,-1.53721,0.274798,0.331033,-2.83866,0.468605,0.811641,0.889804,-0.146101,0.574813,0.0520681,0.577609,-0.53762,1.19857,0.213053,-1.00075,0.0432867,-1.51843,0.00448005,-0.886532,1.49743,1.40609,0.592798,-1.2572,-1.14226,0.43625,-1.32988,1.22413,-0.103231,1.11925,-0.476859,0.955343,0.39728,-1.40742,2.48549,1.27543,-1.18779,-2.47958,-0.544955,-0.435328,-1.2316
%E5%A5%B4%E9%9A%B7,-0.392073,-1.47237,0.281288,0.334408,0.810435,-2.33762,0.675011,1.26513,0.504022,0.221698,-1.70106,0.427991,0.240918,-2.796,0.491255,0.71805,1.15762,0.196929,0.462744,0.156064,0.342938,-0.783741,1.32012,0.552562,-1.42346,-0.366393,-1.44963,0.24367,-0.891689,1.42549,1.89478,0.505999,-1.60499,-1.1785,0.609135,-1.59017,1.23803,-0.187315,1.00698,-0.831242,1.28659,0.546959,-1.34235,3.0233,1.34729,-1.14976,-2.4868,-0.0886712,-0.430834,-1.38854
%E3%82%BF%E3%83%96%E3%83%AC%E3%83%83%E3%83%88_(%E3%82%B3%E3%83%B3%E3%83%94%E3%83%A5%E3%83%BC%E3%82%BF),-0.415908,-1.40437,0.540662,0.461389,0.396788,-2.32106,0.484023,1.39197,0.858561,0.352372,-1.5749,0.241472,0.485656,-2.70903,0.46664,0.713771,0.719829,-0.393972,0.710423,0.139774,0.208432,-0.744861,1.18674,0.488638,-1.12789,-0.165139,-1.36104,0.27321,-0.858461,1.72359,1.5093,0.722622,-1.23168,-1.34504,0.148516,-1.29085,1.20745,-0.270462,0.959157,-0.549027,0.990994,0.139288,-1.30169,2.87516,1.31769,-1.21129,-2.92252,-0.454641,-0.447868,-1.10514
%E3%82%A2%E3%83%A1%E3%83%AA%E3%82%AB%E5%90%88%E8%A1%86%E5%9B%BD%E8%AD%B0%E4%BC%9A,0.0468781,-1.23858,0.0764785,0.413026,0.9628,-2.33439,0.584739,1.26751,0.790941,0.18413,-1.57926,0.00459467,0.414248,-3.14111,0.45297,0.834998,1.27959,-0.135495,0.663589,0.144036,0.461246,-0.602743,1.2302,0.495449,-1.34996,-0.145341,-1.36378,0.167893,-0.844306,1.55239,1.77858,0.629567,-1.29156,-1.19802,0.254222,-1.48122,1.49056,0.115456,1.31996,-0.707275,1.0439,0.467885,-1.09936,2.75444,1.47782,-1.25244,-2.78962,-0.31584,-0.656959,-1.39044
%C5%BD,-0.186179,-1.36736,0.0277091,0.154363,0.865302,-2.22471,0.727907,1.01424,0.729729,0.104429,-1.23057,0.217081,0.400985,-3.12533,0.475609,0.827045,1.30881,-0.346379,0.731743,0.0257009,0.537586,-0.572853,1.21474,0.345776,-1.26695,-0.196554,-1.74132,-0.0560612,-1.00984,1.35582,2.19426,0.402605,-1.4537,-1.18377,0.416052,-1.32715,1.45143,-0.0794237,1.23081,-0.498255,1.09836,0.341326,-1.15211,2.81305,1.33866,-0.869586,-2.68846,-0.5032,-0.568024,-1.27146
%E3%82%A2%E3%83%97%E3%83%AA%E3%82%B1%E3%83%BC%E3%82%B7%E3%83%A7%E3%83%B3%E3%82%BD%E3%83%95%E3%83%88%E3%82%A6%E3%82%A7%E3%82%A2,-0.127864,-1.41607,0.563743,0.454369,0.335231,-2.20825,0.491375,1.46724,1.04605,0.251462,-1.56713,0.177556,0.727216,-2.46882,0.431175,0.763477,0.615294,-0.654325,0.810402,0.188443,0.26575,-0.726147,0.997458,0.418781,-0.970756,0.0346663,-1.34135,0.00734163,-0.783924,1.82435,1.54771,0.947397,-1.0363,-1.387,-0.0359505,-1.13679,1.00864,-0.112122,1.01735,-0.412748,0.745054,0.0724006,-1.18759,2.5703,1.18426,-0.901387,-3.02542,-0.70538,-0.549763,-0.958156
%E3%82%B2%E3%83%BC%E3%83%A0%E6%A9%9F,0.221051,-1.11053,0.271937,0.321195,0.863732,-2.45702,0.66631,1.49001,0.773926,0.45474,-1.42864,-0.145368,0.686216,-2.9359,0.349183,1.10213,0.691349,-0.364929,1.05029,0.0543141,0.376385,-0.570143,1.15885,0.309268,-1.08716,0.0792919,-1.29922,0.210289,-1.01355,1.89428,1.65525,0.729628,-1.15216,-1.28732,-0.0706057,-1.44144,1.1289,0.241349,1.40455,-0.383824,0.559163,0.354162,-0.944231,2.58283,1.34285,-1.03092,-2.86593,-0.552972,-0.703503,-1.28572
%E7%99%BD%E7%86%B1%E9%9B%BB%E7%90%83,-0.317266,-1.52863,0.429055,0.564557,0.441959,-2.08251,0.432002,1.34361,0.620495,0.241821,-1.50354,0.61654,0.240658,-2.66834,0.430561,0.718749,0.884466,-0.229016,0.519756,0.279819,0.347224,-0.715567,1.02049,0.444953,-1.17241,-0.162148,-1.42515,0.0976837,-0.692106,1.4902,1.4585,0.815828,-1.21803,-1.21593,0.460596,-1.20944,0.934436,-0.353362,1.05165,-0.513116,1.03527,0.230265,-1.5962,2.65307,1.32856,-1.0521,-2.3964,-0.538334,-0.597102,-1.0194
Java_Runtime_Environment,-0.464021,-1.57414,0.300894,0.237728,0.282191,-2.44974,0.5929,1.2333,0.736389,0.167459,-1.47572,0.463591,0.370842,-2.78284,0.550665,0.661889,0.820642,-0.170382,0.632136,0.0332587,0.367891,-0.742212,1.23597,0.598793,-1.23733,-0.187,-1.51732,0.202613,-0.873358,1.4586,1.83461,0.462595,-1.45768,-1.50254,0.356026,-1.44286,1.37943,-0.309743,0.941805,-0.692482,1.0267,0.125263,-1.37004,2.90448,1.43361,-1.16255,-2.73298,-0.43635,-0.427902,-1.12202
%E3%82%B7%E3%83%AA%E3%82%A2,-0.210188,-1.53316,0.0458085,0.341652,0.541554,-2.2368,0.717344,1.20972,0.924679,0.0381114,-1.16321,0.22195,0.22899,-2.93291,0.324154,0.73799,1.025,-0.309034,0.684041,0.0341566,0.538798,-0.588578,0.998182,0.255931,-1.21154,-0.0602839,-1.50257,0.0124017,-1.05601,1.43807,1.76935,0.570196,-1.18976,-1.35748,0.223838,-1.45149,1.42844,-0.321737,1.08843,-0.571134,1.12556,0.195095,-1.20961,2.40817,1.12571,-1.16745,-2.73265,-0.678892,-0.362123,-1.20667
%E5%B8%82%E6%B0%91%E6%A8%A9%E6%B3%95#,-0.154451,-1.43554,0.314228,0.637486,0.570968,-1.86863,0.380646,1.15305,0.565005,0.295082,-1.46843,0.594351,0.381406,-2.60344,0.187476,0.669632,0.886449,-0.311615,0.320022,-0.0643134,0.366669,-0.620957,0.935469,0.295405,-1.12706,-0.11183,-1.37505,-0.105548,-0.52701,1.49393,1.41525,0.683143,-1.16437,-1.07533,0.35731,-1.00924,0.752652,-0.218499,0.875607,-0.276189,1.13024,0.368109,-1.37021,2.22918,1.38052,-0.961554,-2.24589,-0.485998,-0.466839,-0.980681
%E3%83%97%E3%82%A8%E3%83%AB%E3%83%88%E3%83%AA%E3%82%B3,-0.155793,-1.34097,0.182584,0.405353,0.477706,-2.47173,0.729889,1.59354,1.01068,0.19499,-1.40478,0.13222,0.184523,-2.90426,0.407487,0.728424,0.921342,-0.326139,0.790601,-0.026063,0.323385,-0.658971,1.07728,0.365642,-1.16611,-0.125368,-1.41326,0.175416,-0.97266,1.75821,1.70347,0.495991,-1.24077,-1.35189,-0.115036,-1.52907,1.50752,-0.358273,1.06019,-0.840085,1.11955,0.0889596,-1.16027,2.73654,1.35462,-1.2851,-2.89822,-0.434964,-0.393269,-1.34389
WebKit,-0.255434,-1.47433,0.326148,0.358356,0.460179,-2.24486,0.540964,1.3217,1.05883,0.15811,-1.65876,0.374607,0.526165,-2.714,0.428711,0.709983,0.773269,-0.469252,0.860287,0.228449,0.274151,-0.783498,1.08731,0.500459,-1.20351,-0.0104183,-1.44179,0.253775,-0.926123,1.90655,1.7638,0.841715,-1.20305,-1.47783,0.227608,-1.31718,1.22998,-0.22806,0.937439,-0.629942,0.835546,0.172597,-1.33301,2.98482,1.27821,-0.96474,-3.00254,-0.536848,-0.456088,-1.16484
Compact_HTML,-0.0949544,-1.39549,0.344704,0.359976,0.723492,-2.21757,0.801888,1.43486,0.782194,0.30078,-1.43294,0.159629,0.470788,-2.778,0.379604,0.889082,0.818475,-0.356876,0.846003,0.140044,0.438101,-0.571128,1.11066,0.393921,-1.12938,-0.0419214,-1.40044,0.368259,-1.14067,1.95567,1.73756,0.623678,-1.29363,-1.48859,0.0915796,-1.3681,1.47318,-0.00953564,1.18366,-0.603931,0.883926,0.324546,-1.10587,2.75053,1.45546,-1.01151,-2.8046,-0.499818,-0.478185,-1.29946
%E7%A4%BE%E4%BC%9A%E5%A5%91%E7%B4%84,-0.572189,-1.51879,0.361512,0.380945,0.324056,-2.05732,0.660562,1.2592,0.690561,0.156729,-1.36252,0.597879,0.291495,-2.5395,0.386077,0.856122,0.93264,-0.0755543,0.415305,0.102052,0.232435,-0.710567,1.21625,0.485772,-1.08198,-0.211516,-1.27992,-0.00381913,-0.795575,1.40651,1.57156,0.563187,-1.33519,-1.19158,0.580197,-1.18871,1.09665,-0.393021,0.915455,-0.577277,1.16667,0.33801,-1.36086,2.74351,1.44768,-1.03455,-2.4265,-0.563189,-0.519328,-1.142
%E5%85%AC%E7%94%A8%E8%AA%9E,0.00745932,-1.35554,0.212064,0.622195,0.413727,-1.45955,0.563044,1.37665,0.721798,0.0982417,-1.17973,0.537528,0.194645,-2.20265,0.232641,0.500581,0.827466,-0.306091,0.597996,0.0427418,0.459736,-0.611989,0.770851,0.230489,-0.817586,0.148426,-1.22759,-0.172983,-0.570952,1.57484,1.10542,0.75568,-1.01376,-0.990809,0.257702,-0.828768,0.621883,-0.266956,0.823316,-0.197681,1.07401,0.125451,-1.26312,2.04046,1.08052,-0.891678,-2.1834,-0.610673,-0.436639,-0.824241
%E4%B8%96%E7%95%8C%E9%81%BA%E7%94%A3,-0.397911,-1.5811,0.416173,0.579262,0.451363,-1.9495,0.267652,1.43718,0.493928,-0.00956379,-1.58343,0.68875,0.100853,-2.56326,0.361146,0.676971,0.948169,-0.117507,0.413924,0.332641,0.235257,-0.787014,0.833403,0.504847,-1.21441,-0.261736,-1.4378,-0.103703,-0.542137,1.27831,1.40545,0.893139,-1.25423,-1.1933,0.651093,-1.21823,0.660055,-0.495583,1.04959,-0.631992,1.1717,0.26,-1.8043,2.58574,1.20654,-1.14289,-2.27576,-0.424106,-0.63658,-0.900868
%E3%83%8F%E3%83%AA%E3%82%A8%E3%83%83%E3%83%88%E3%83%BB%E3%83%93%E3%83%BC%E3%83%81%E3%83%A3%E3%83%BC%E3%83%BB%E3%82%B9%E3%83%88%E3%82%A6,-0.00808929,-1.39625,0.126692,0.374091,0.831865,-2.25469,0.563585,1.29706,1.03555,0.162483,-1.4999,0.112844,0.359792,-2.94311,0.550494,0.810732,1.02421,-0.308941,0.794285,0.148237,0.411919,-0.627218,1.2682,0.52837,-1.2616,-0.144939,-1.3061,0.30388,-1.05705,1.81167,1.65394,0.638743,-1.13347,-1.33565,0.174348,-1.37249,1.59584,0.114634,1.17493,-0.758048,0.912451,0.341035,-1.01227,2.75132,1.5407,-1.40868,-2.97062,-0.513292,-0.600148,-1.38282
Web_Hypertext_Application_Technology_Working_Group,-0.182553,-1.36292,0.367359,0.321731,0.631019,-2.31414,0.788262,1.48105,0.869572,0.266439,-1.41382,0.0656103,0.455613,-2.79925,0.351664,0.852815,0.728061,-0.381456,0.953092,0.131419,0.340169,-0.536508,1.03036,0.34339,-1.07022,-0.108002,-1.40697,0.35115,-1.17716,1.92917,1.73562,0.627782,-1.19779,-1.53912,0.019901,-1.41368,1.53605,-0.149121,1.19571,-0.675839,0.856849,0.253478,-1.13252,2.73528,1.39858,-0.972765,-2.86185,-0.455353,-0.396268,-1.29281
Ch,0.179442,-1.34213,-0.0857365,0.425841,0.836764,-1.66564,0.601857,1.24455,0.70414,0.0994467,-1.19431,0.293239,0.356829,-2.88402,0.353017,0.736925,0.981381,-0.713954,0.768362,0.0670624,0.569599,-0.627259,0.849608,0.111485,-0.925367,0.174994,-1.35221,-0.00858518,-0.963488,1.59803,1.65139,0.572949,-0.939296,-1.22579,0.196887,-1.05423,1.1984,-0.0735221,1.28777,-0.31716,0.924437,0.168999,-1.07588,2.05761,1.09226,-0.958625,-2.61203,-0.833525,-0.560686,-0.8908
Safari,-0.134083,-1.44262,-0.0135718,0.357151,0.667598,-2.17427,0.602478,1.17237,0.910978,0.00113901,-1.47723,0.351227,0.306038,-2.88518,0.486129,0.79668,1.02352,-0.233668,0.691295,0.127872,0.363591,-0.687001,1.13074,0.531898,-1.24889,-0.18844,-1.45775,0.282686,-0.989483,1.65899,1.83721,0.584582,-1.25248,-1.45314,0.35022,-1.39226,1.51923,-0.271336,1.07066,-0.788606,1.06194,0.245251,-1.28123,2.80419,1.45774,-1.19978,-2.78404,-0.500228,-0.472652,-1.38794
%E3%83%9E%E3%83%B3%E3%83%BB%E3%82%A4%E3%83%B3%E3%83%BB%E3%82%B6%E3%83%BB%E3%83%96%E3%83%A9%E3%82%A6%E3%82%B6,-0.245013,-1.22544,0.458237,0.45437,0.303293,-1.9771,0.54558,1.46458,0.971258,0.252879,-1.61823,0.345067,0.721747,-2.4281,0.430005,0.597571,0.551727,-0.605017,0.776605,0.208482,0.309254,-0.804586,0.864487,0.387823,-0.998721,0.179932,-1.24633,0.115272,-0.67098,1.77984,1.42372,0.896322,-0.974448,-1.28428,0.121644,-1.08395,0.841794,-0.19833,0.901366,-0.335135,0.656363,0.018124,-1.18715,2.42869,1.07098,-0.905491,-2.91241,-0.604771,-0.564475,-0.834843
%E5%9C%B0%E7%90%83%E7%92%B0%E5%A2%83%E5%95%8F%E9%A1%8C,0.0411394,-1.51794,0.006427,0.572756,0.641628,-1.44818,0.631558,1.13782,0.57266,-0.0323324,-1.20826,0.545195,0.383298,-2.40468,0.255492,0.805206,0.786893,-0.488846,0.462342,0.183493,0.445909,-0.639216,0.654647,0.225274,-0.872423,0.123059,-1.31983,0.0318,-0.641655,1.50081,1.35173,0.727434,-0.986071,-1.30637,0.419091,-0.907703,1.00612,-0.262151,1.07786,-0.301812,0.870988,0.16422,-1.31304,1.93973,1.00864,-0.983656,-2.24807,-0.840526,-0.476995,-0.876292
%E3%82%BD%E3%83%9E%E3%83%AA%E3%82%A2,-0.177501,-1.41383,0.0285178,0.433594,0.546069,-2.16854,0.681341,1.22417,0.987199,0.106767,-0.953274,0.101545,0.282874,-3.00816,0.38074,0.781145,0.893386,-0.449714,0.812709,0.021491,0.461842,-0.500708,0.846247,0.216711,-1.11652,-0.0678773,-1.5035,-0.00522266,-1.07135,1.5899,1.70122,0.613318,-0.965785,-1.43376,0.134221,-1.41347,1.26314,-0.305747,1.25796,-0.509466,0.920026,0.170873,-1.23551,2.38502,1.21081,-1.13619,-2.73796,-0.77782,-0.434957,-1.12842
%E3%82%A2%E3%83%A1%E3%83%AA%E3%82%AB%E8%A5%BF%E6%B5%B7%E5%B2%B8,-0.104234,-1.5254,0.288756,0.453891,0.521149,-1.97214,0.630973,1.01087,0.838284,0.286108,-1.42205,0.378731,0.579548,-2.60904,0.269875,0.654353,0.828006,-0.408756,0.569572,0.0783123,0.299129,-0.757641,1.03089,0.44496,-1.17145,-0.00210514,-1.15624,0.176119,-0.881757,1.76132,1.58787,0.460231,-1.04779,-1.31055,0.197379,-0.968747,1.29521,0.0603835,1.04758,-0.420367,0.891452,0.275633,-1.01494,2.61361,1.17562,-1.04342,-2.73619,-0.522649,-0.580381,-1.02067
1941%E5%B9%B4,-0.2728,-1.31499,0.00686755,0.441399,1.10769,-1.77894,0.587666,1.45652,0.601026,-0.0241998,-1.22272,0.356935,-0.0444387,-2.87841,0.572017,0.679933,1.29434,0.027875,0.525211,0.243344,0.707298,-0.4523,0.944255,0.380931,-1.24874,0.0511425,-1.37619,0.0117881,-0.989381,1.27881,1.42159,0.743566,-1.51149,-0.899661,0.632752,-1.28591,0.980902,0.0446851,1.51715,-0.43965,1.15268,0.631279,-1.39032,2.29462,1.27523,-1.07739,-2.22593,-0.721964,-0.711435,-1.36154
2006%E5%B9%B4,-0.116537,-1.3145,0.102932,0.563934,0.775932,-1.89749,0.433981,1.18744,0.634697,0.092477,-1.33231,0.117722,0.336562,-2.99572,0.304351,0.778417,1.21521,0.0356109,0.630044,0.0633937,0.668351,-0.564105,0.805963,0.108845,-1.07563,-0.159337,-1.49088,-0.352557,-0.879443,1.34117,1.40202,0.742011,-1.28418,-0.936166,0.597414,-1.23719,0.925933,-0.166681,1.43304,-0.33984,1.16689,0.770626,-1.46433,2.24603,1.23502,-1.04322,-2.15248,-0.438584,-0.494173,-1.19135
%E3%83%A1%E3%82%AD%E3%82%B7%E3%82%B3%E9%A0%98%E3%83%86%E3%82%AD%E3%82%B5%E3%82%B9,0.146245,-1.19272,0.18155,0.32816,0.436312,-2.01394,0.592977,1.27086,0.821844,0.229448,-1.18848,0.0669741,0.755211,-2.37808,0.19526,0.745608,0.477154,-0.599508,0.900316,0.131594,0.275375,-0.72757,0.566668,0.279077,-0.800848,0.0915567,-1.08105,0.154115,-0.841438,1.86118,1.4304,0.592337,-0.826284,-1.45501,-0.146043,-1.07217,1.04651,-0.0982239,1.21417,-0.266979,0.674371,0.0330782,-0.902408,2.00589,0.989387,-0.905924,-2.77032,-0.695018,-0.440878,-0.902196
%E3%83%95%E3%83%AC%E3%83%87%E3%83%AA%E3%83%83%E3%82%AF%E3%83%BB%E3%83%80%E3%82%B0%E3%83%A9%E3%82%B9,-0.0241784,-1.34352,0.158799,0.410976,0.443768,-1.58638,0.655644,1.18414,0.810135,0.125263,-1.1658,0.393634,0.654733,-2.40411,0.203761,0.660332,0.634576,-0.653642,0.691305,0.0487742,0.509581,-0.685106,0.758812,0.283179,-0.966589,0.243448,-1.16714,0.0837221,-0.751428,1.61833,1.48593,0.633363,-0.771004,-1.12983,0.0606147,-0.839201,0.94712,-0.174353,1.09094,-0.164512,0.741086,0.106311,-0.976496,1.96463,1.02119,-0.750695,-2.5426,-0.812885,-0.588942,-0.746012
%E8%A8%B4%E8%A8%9F,0.0383147,-1.53365,-0.0131157,0.485336,0.825605,-1.79692,0.606367,1.09454,0.470219,0.123606,-1.16204,0.292263,0.31969,-2.98788,0.394576,0.785026,1.36812,-0.454986,0.452918,0.115045,0.637665,-0.609115,0.869616,0.281181,-1.14465,-0.204101,-1.30833,-0.241631,-0.805562,1.19489,1.57854,0.604487,-1.00212,-1.0434,0.630111,-1.01709,0.961017,-0.0228583,1.41078,-0.338032,1.11774,0.820185,-1.42216,2.13511,1.15255,-1.02837,-2.17872,-0.644685,-0.462193,-0.836839
%E3%82%A2%E3%83%A1%E3%83%AA%E3%82%AB%E5%90%88%E8%A1%86%E5%9B%BD%E3%81%AE%E5%93%B2%E5%AD%A6,-0.128454,-1.25827,0.0332195,0.578414,0.732093,-1.9088,0.642804,1.16775,0.802883,0.203567,-1.41785,0.263946,0.39539,-2.77041,0.334782,0.748646,0.874037,-0.224948,0.579823,0.00600363,0.588328,-0.501115,1.10993,0.186636,-1.07354,0.0981802,-1.41021,0.00745963,-0.79557,1.53922,1.43116,0.591636,-1.16923,-1.11732,0.314573,-1.16053,1.12808,-0.0380573,1.12051,-0.347417,0.915887,0.335505,-1.25547,2.4193,1.21811,-1.03246,-2.53492,-0.552302,-0.540206,-1.13622
%E9%8A%83%E7%A4%BE%E4%BC%9A,-0.14248,-1.44939,0.17951,0.495673,0.346363,-1.49332,0.594206,1.27891,0.508421,0.0449044,-1.10274,0.626324,0.35509,-2.28013,0.216682,0.710545,0.80563,-0.380655,0.392955,0.0439692,0.434233,-0.699445,0.862966,0.176077,-0.929054,0.0900452,-1.2009,-0.132429,-0.597378,1.32263,1.35389,0.658849,-0.996072,-1.05084,0.47879,-0.928698,0.861847,-0.364223,1.01361,-0.217365,0.946887,0.271047,-1.1768,1.99954,1.14372,-0.896006,-2.09067,-0.750307,-0.547351,-0.798966
Ajax,-0.553671,-1.53559,0.383695,0.351687,0.327753,-2.27362,0.626982,1.13898,0.889269,0.105643,-1.55378,0.466925,0.443402,-2.52908,0.604584,0.753148,0.822823,-0.13246,0.653022,0.206877,0.18614,-0.815501,1.24276,0.592248,-1.18523,-0.144357,-1.42012,0.192129,-0.907675,1.59738,1.68877,0.676929,-1.31072,-1.48247,0.590667,-1.3286,1.22252,-0.317855,0.891544,-0.735506,0.997881,0.260935,-1.33016,2.93735,1.37424,-1.16594,-2.6539,-0.440694,-0.452346,-1.15307
Netscape_Navigator,5.96009e-05,-1.40778,0.0638222,0.292345,0.784631,-2.06135,0.658759,1.43795,0.998912,0.177982,-1.66137,0.366958,0.486972,-2.93014,0.391307,0.877303,1.0413,-0.38386,0.720263,0.139754,0.496765,-0.75775,1.27756,0.388958,-1.17577,0.0023978,-1.54102,0.140958,-1.00607,1.75992,1.85222,0.656497,-1.22218,-1.24043,0.271138,-1.39805,1.56302,-0.0765124,1.00703,-0.68961,0.97885,0.271156,-1.11489,2.70172,1.38567,-0.968382,-2.93916,-0.612026,-0.552491,-1.3019
%E3%83%8D%E3%83%83%E3%83%88%E3%82%B9%E3%82%B1%E3%83%BC%E3%83%97%E3%82%B3%E3%83%9F%E3%83%A5%E3%83%8B%E3%82%B1%E3%83%BC%E3%82%B7%E3%83%A7%E3%83%B3%E3%82%BA,-0.403895,-1.45723,0.410238,0.323099,0.214647,-2.25255,0.728897,1.55227,0.975004,0.236848,-1.67897,0.546748,0.596349,-2.76504,0.450796,0.717449,0.719538,-0.292208,0.744821,0.197251,0.236605,-0.892768,1.05076,0.581687,-1.19824,-0.00713696,-1.29779,0.2047,-0.754225,1.6894,1.68939,0.780115,-1.30593,-1.40729,0.303216,-1.33433,1.33471,-0.368292,1.07009,-0.714187,0.946159,0.0997813,-1.3168,3.01854,1.48511,-0.991438,-2.84652,-0.560861,-0.585173,-1.08613
%E3%82%AF%E3%83%A9%E3%82%A4%E3%82%A2%E3%83%B3%E3%83%88_(%E3%82%B3%E3%83%B3%E3%83%94%E3%83%A5%E3%83%BC%E3%82%BF),0.00130115,-1.28699,0.509424,0.247943,0.308498,-2.17304,0.612083,1.38944,0.972392,0.35796,-1.08652,0.0895205,0.670913,-2.42829,0.25834,0.606707,0.401468,-0.812178,1.05981,0.0808187,0.35554,-0.631672,0.850786,0.297308,-0.844046,0.0783827,-1.25048,0.275619,-0.931131,1.81075,1.53128,0.797589,-0.868232,-1.42266,-0.277563,-1.04283,0.956811,-0.0882381,1.02739,-0.204151,0.57114,-0.0650818,-1.02522,2.26501,0.97122,-0.768058,-2.78795,-0.722209,-0.357501,-0.841449
%E5%9B%BD%E3%81%AE%E5%9B%BD%E5%86%85%E7%B7%8F%E7%94%9F%E7%94%A3%E9%A0%86%E3%83%AA%E3%82%B9%E3%83%88#,0.0208329,-1.46161,0.168241,0.58215,0.774,-1.74112,0.657784,1.4659,0.486635,0.211746,-1.32459,0.474773,0.364352,-2.88359,0.329324,0.813721,0.978558,-0.334358,0.549079,0.198793,0.568687,-0.51679,0.862561,0.0917964,-1.16176,0.143856,-1.21503,-0.14386,-0.782458,1.53556,1.46565,0.801155,-0.92322,-1.02662,0.305532,-1.1189,0.986379,-0.0401441,1.3675,-0.338016,1.01383,0.273711,-1.23976,2.01822,1.15213,-0.893233,-2.35896,-0.854678,-0.69003,-0.899562
%E3%82%A2%E3%83%A1%E3%83%AA%E3%82%AB%E9%80%A3%E5%90%88%E5%9B%BD,-0.258554,-1.47328,0.0855565,0.502488,0.626314,-2.24214,0.589668,1.25602,0.97373,0.209834,-1.3053,0.133803,0.204485,-2.90951,0.499387,0.65104,0.789367,-0.289689,0.81232,0.00244638,0.448937,-0.642031,0.786063,0.334957,-1.33431,0.00933595,-1.27308,0.163118,-1.09282,1.89618,1.50303,0.628303,-1.08434,-1.366,0.0120431,-1.3957,1.36977,-0.131489,1.19462,-0.603967,0.885597,0.24297,-1.19425,2.55527,1.3272,-1.19984,-2.75363,-0.646682,-0.478404,-1.2397
%E3%83%86%E3%82%AF%E3%82%B9%E3%83%BB%E3%83%A1%E3%82%AF%E3%82%B9%E6%96%99%E7%90%86,-0.0696773,-1.34318,0.267211,0.339494,0.448423,-1.95006,0.594549,1.32668,0.83407,0.218491,-1.28137,0.317398,0.614914,-2.32437,0.263347,0.69776,0.682377,-0.49376,0.79963,0.184967,0.316075,-0.768707,0.873608,0.368091,-0.83706,0.0970761,-1.30105,0.118413,-0.777281,1.68238,1.44066,0.614343,-0.855121,-1.3191,0.0974202,-1.04823,0.979841,-0.155626,1.05465,-0.341317,0.885415,0.011827,-1.05943,2.02131,0.894092,-0.949708,-2.6048,-0.653454,-0.413707,-0.860097
%E3%83%95%E3%83%AB%E3%83%96%E3%83%A9%E3%82%A6%E3%82%B6,-0.201281,-1.28748,0.471846,0.488206,0.33392,-1.76117,0.401718,1.52986,0.952385,0.219996,-1.40083,0.385374,0.644956,-2.29393,0.402463,0.644649,0.453486,-0.709352,0.800341,0.103894,0.415609,-0.781579,0.804962,0.222844,-0.845902,0.282884,-1.13139,0.100978,-0.711324,1.77186,1.23636,0.836652,-0.888982,-1.33538,0.0118103,-0.945372,0.771166,-0.0971884,0.915123,-0.217843,0.628563,0.0454592,-1.08941,2.29022,0.990137,-0.920279,-2.74805,-0.838681,-0.478334,-0.778439
%E3%83%96%E3%83%AD%E3%83%BC%E3%83%89%E3%82%A6%E3%82%A7%E3%82%A4%E3%83%BB%E3%82%B7%E3%82%A2%E3%82%BF%E3%83%BC,-0.258211,-1.30302,0.556834,0.403875,0.424251,-2.25207,0.578586,1.55425,0.892997,0.337319,-1.61373,0.23205,0.533095,-2.63386,0.548806,0.733803,0.753307,-0.404786,0.790461,0.16751,0.310964,-0.674549,1.13317,0.479153,-1.01044,-0.0886655,-1.29546,0.224313,-0.776271,1.67456,1.40168,0.829721,-1.23491,-1.37786,0.112867,-1.23867,1.2364,-0.14392,1.05757,-0.468432,0.95086,0.148621,-1.2452,2.77879,1.43375,-1.17749,-2.85478,-0.577787,-0.49337,-1.06141
%E6%96%87%E5%AD%97%E5%AD%A6,0.409485,-1.33475,-0.152597,0.743009,0.843449,-1.55081,0.438232,0.868192,0.555897,-0.0561934,-1.27704,0.364057,0.631031,-2.74804,0.109775,0.807023,0.628827,-0.794928,0.622863,0.0603677,0.583161,-0.601468,0.357673,-0.10328,-0.871296,0.242215,-1.50861,-0.0498557,-0.621555,1.66788,1.40827,0.595785,-0.694466,-1.38676,0.284592,-0.734867,0.816753,-0.159498,1.34853,-0.0391722,0.756702,0.141272,-1.3211,1.712,0.841865,-0.870753,-2.47444,-0.825338,-0.553745,-0.779875
F%E3%83%BB%E3%82%B9%E3%82%B3%E3%83%83%E3%83%88%E3%83%BB%E3%83%95%E3%82%A3%E3%83%83%E3%83%84%E3%82%B8%E3%82%A7%E3%83%A9%E3%83%AB%E3%83%89,0.0369459,-1.32226,0.14384,0.421508,0.818965,-2.08827,0.432197,1.38777,0.940815,0.182704,-1.48096,0.112645,0.382818,-2.89922,0.520821,0.750836,0.880225,-0.364972,0.831424,0.151689,0.473564,-0.608425,1.08005,0.503776,-1.21206,-0.0141397,-1.2366,0.402385,-1.03119,1.80828,1.48607,0.724652,-1.08843,-1.36723,0.116247,-1.30645,1.47804,0.0409854,1.24487,-0.589655,0.885255,0.34058,-1.1605,2.65326,1.42699,-1.38296,-2.8761,-0.535877,-0.524216,-1.25953
%E5%9B%BD%E3%81%AE%E9%9D%A2%E7%A9%8D%E9%A0%86%E3%83%AA%E3%82%B9%E3%83%88,-0.2831,-1.31438,0.0858294,0.467851,0.537868,-2.17708,0.694941,1.10177,0.747954,0.11884,-1.13097,0.2134,0.0602313,-2.79272,0.487158,0.59111,0.813222,-0.151948,0.648841,0.0309775,0.427992,-0.441484,0.837385,0.413282,-1.22122,-0.0712096,-1.32253,0.296708,-0.912187,1.54053,1.47368,0.567233,-1.08229,-1.41956,0.203225,-1.29884,1.34128,-0.240477,1.12031,-0.546124,0.994542,0.102822,-1.29699,2.42348,1.25877,-1.35154,-2.54065,-0.529042,-0.432268,-1.19147
%E9%87%8E%E8%8C%82%E8%8B%B1%E9%9B%84,-0.0167495,-1.37246,-0.0898618,0.392861,0.924344,-2.11086,0.492903,1.41825,0.462847,0.139545,-1.50067,0.456626,0.0797057,-3.07929,0.391829,0.716265,1.29005,-0.0364108,0.423179,0.25513,0.503289,-0.769607,1.1106,0.327401,-1.42017,-0.367941,-1.44168,-0.0302507,-0.741897,1.13502,1.63415,0.629559,-1.16813,-0.853129,0.58858,-1.46902,1.17584,-0.0658739,1.21044,-0.808638,1.24766,0.403603,-1.36459,2.37956,1.23656,-1.19726,-2.39908,-0.358666,-0.714597,-1.24505
%E3%83%80%E3%82%A4%E3%83%8A%E3%83%9F%E3%83%83%E3%82%AFHTML,-0.0457722,-1.33129,0.346028,0.354672,0.692437,-2.22398,0.767509,1.46653,0.78777,0.303965,-1.42468,0.112103,0.488283,-2.73396,0.366374,0.880621,0.716279,-0.393496,0.943441,0.101342,0.42373,-0.562846,1.11037,0.350925,-1.0409,-0.0670675,-1.44505,0.351452,-1.12238,1.93566,1.67868,0.628046,-1.20182,-1.47409,0.0115424,-1.33209,1.43089,-0.0853564,1.15004,-0.534121,0.883781,0.270431,-1.13546,2.61229,1.39311,-0.966088,-2.75508,-0.509953,-0.410846,-1.23865
Web_(%E3%82%A6%E3%82%A7%E3%83%96%E3%83%96%E3%83%A9%E3%82%A6%E3%82%B6),-0.0507259,-1.49433,0.134231,0.360501,0.623431,-2.21333,0.633191,1.16204,1.00524,0.0678402,-1.56573,0.292561,0.466205,-2.86606,0.417556,0.861068,1.09565,-0.315164,0.58836,0.15448,0.396218,-0.752431,1.22391,0.492274,-1.13171,-0.183674,-1.43926,0.221445,-0.987499,1.70531,1.82015,0.529921,-1.24825,-1.46227,0.354086,-1.33235,1.5151,-0.0792409,0.956895,-0.807785,1.02902,0.291279,-1.23405,2.78942,1.4506,-1.20528,-2.84832,-0.480724,-0.499544,-1.37695
%E3%83%AC%E3%82%A4%E3%83%BB%E3%83%96%E3%83%A9%E3%83%83%E3%83%89%E3%83%99%E3%83%AA,-0.180025,-1.42446,-0.000246271,0.431653,0.807052,-2.25573,0.467876,1.2402,0.884967,0.134296,-1.49555,0.230509,0.132193,-3.03999,0.59404,0.746491,1.03886,-0.135293,0.670857,0.149208,0.413301,-0.627112,1.20799,0.536364,-1.31461,-0.212727,-1.37704,0.2991,-1.00999,1.61335,1.57771,0.592917,-1.16273,-1.33967,0.310932,-1.43896,1.52302,-0.0808253,1.09811,-0.783598,1.04208,0.293135,-1.26333,2.69176,1.48621,-1.4868,-2.77517,-0.388446,-0.531529,-1.38471
1_E12_m%C2%B2,0.434389,-0.960529,-0.224783,0.453734,0.690996,-1.83117,0.66158,1.01751,0.622557,0.0386014,-1.09262,0.0426276,0.658466,-2.57761,0.193108,0.831015,0.714692,-0.589882,0.882639,-0.00401814,0.579307,-0.417982,0.541847,0.144579,-0.750648,0.195992,-1.70207,0.0684253,-0.755213,1.69344,1.37298,0.680195,-0.9401,-1.4908,0.0281836,-0.980979,1.08647,-0.189716,1.44525,-0.0545942,0.757283,0.13167,-1.52892,2.05047,0.944337,-1.08161,-2.27109,-0.929087,-0.389225,-0.919659
%E3%82%A2%E3%83%A1%E3%83%AA%E3%82%AB%E5%9B%BD%E9%98%B2%E7%B7%8F%E7%9C%81,-0.344307,-1.54852,0.189819,0.450859,0.797375,-2.21558,0.627533,1.40108,0.810954,0.343462,-1.59786,0.326693,0.149905,-2.92991,0.661962,0.609444,0.98202,-0.170817,0.618829,0.177979,0.426245,-0.758949,0.923172,0.517404,-1.49276,-0.0529052,-1.32556,0.518367,-0.986696,1.82513,1.80386,0.63017,-1.29213,-1.36066,0.170108,-1.50679,1.51045,-0.138796,1.10345,-0.819847,1.02095,0.192443,-1.24086,2.81495,1.42521,-1.36838,-2.79962,-0.335218,-0.63131,-1.3246
%E3%83%8D%E3%83%83%E3%83%88%E3%82%B5%E3%83%BC%E3%83%95%E3%82%A3%E3%83%B3,0.0279683,-1.21938,0.188072,0.433165,0.655742,-2.02202,0.657999,1.50178,0.844896,0.261256,-1.4646,0.278758,0.519452,-2.7729,0.368719,0.814948,0.768941,-0.357396,0.770254,0.0675563,0.560357,-0.648089,1.08594,0.134118,-0.975318,0.160795,-1.36764,0.131106,-0.821834,1.67744,1.51176,0.683864,-1.10216,-1.18239,0.133227,-1.27766,1.09942,-0.127213,1.10237,-0.414037,0.897777,0.201925,-1.11574,2.28858,1.1967,-0.956098,-2.63533,-0.616711,-0.468178,-1.05579
%E3%82%B7%E3%82%A2%E3%83%88%E3%83%AB,-0.467749,-1.48344,0.089904,0.302371,0.711557,-2.40987,0.589859,1.18639,0.868347,0.17573,-1.47138,0.102741,0.319304,-3.03662,0.561054,0.71676,1.15108,-0.0734081,0.709214,0.103606,0.479299,-0.594056,1.02411,0.486481,-1.35684,-0.0777584,-1.42981,0.163353,-0.934508,1.4817,1.7783,0.535304,-1.35187,-1.29531,0.371148,-1.59333,1.33901,-0.150554,1.13636,-0.708242,0.948981,0.425778,-1.2697,2.86314,1.29304,-1.22624,-2.66645,-0.318754,-0.598944,-1.25271
%E9%9F%BF%E3%81%8D%E3%81%A8%E6%80%92%E3%82%8A,-0.0295204,-1.36655,0.177825,0.419057,0.654748,-2.11778,0.471309,1.422,0.903297,0.0672031,-1.36815,0.245381,0.395302,-2.67937,0.325535,0.805774,1.02399,-0.330654,0.716124,0.260413,0.455138,-0.7322,1.04355,0.296665,-1.10695,-0.154004,-1.39857,-0.127209,-0.889387,1.55905,1.63304,0.765899,-1.14676,-1.14811,0.302992,-1.28801,1.02086,-0.0918038,1.14932,-0.566025,0.960488,0.356883,-1.2503,2.4224,1.21787,-0.924734,-2.63341,-0.613857,-0.602083,-1.1539
%E4%BF%9D%E5%AE%88,-0.361847,-1.42383,0.176141,0.414867,0.670469,-2.61006,0.607834,1.35331,0.561341,0.189148,-1.66789,0.333751,0.137726,-3.01499,0.551143,0.934453,1.04468,0.29152,0.541646,0.150945,0.266819,-0.799823,1.38602,0.515855,-1.21213,-0.524973,-1.44645,0.0850864,-0.851051,1.24419,1.58822,0.541072,-1.58741,-1.18129,0.678037,-1.70224,1.11282,-0.236397,1.05782,-0.825406,1.25755,0.407739,-1.57008,2.90443,1.49073,-1.5337,-2.42822,-0.226852,-0.403721,-1.3707
%E7%A7%BB%E6%B0%91%E5%9B%BD%E7%B1%8D%E6%B3%95,-0.00584639,-1.5002,0.0767653,0.580433,0.760139,-2.00838,0.462094,1.18823,0.743267,0.227469,-1.43232,0.445121,0.360066,-2.7511,0.346852,0.709981,0.903218,-0.163062,0.500198,0.0440085,0.424414,-0.654143,0.961427,0.267034,-1.2279,0.0212795,-1.25764,-0.0244106,-0.763124,1.72712,1.39322,0.646366,-1.13918,-1.15328,0.270794,-1.21621,1.01426,0.0545632,1.07563,-0.365049,0.914908,0.334909,-1.17025,2.2865,1.32014,-1.20723,-2.49799,-0.698608,-0.589717,-1.13287
%E3%83%AD%E3%82%B9%E6%9A%B4%E5%8B%95,-0.397006,-1.40514,0.616956,0.572471,0.389954,-2.05025,0.26854,1.52529,0.853161,0.18905,-1.54741,0.55887,0.382543,-2.48426,0.42748,0.620242,0.681003,-0.267649,0.61223,0.242153,0.292183,-0.791112,0.899378,0.427686,-1.10803,-0.113617,-1.42773,-0.00702789,-0.695819,1.70599,1.36847,0.992846,-1.20015,-1.19713,0.317958,-1.14623,0.752574,-0.318233,0.902044,-0.496566,0.915721,0.131082,-1.53854,2.72873,1.19697,-1.04338,-2.63856,-0.558379,-0.484059,-1.00874
%E3%82%AA%E3%83%A9%E3%83%B3%E3%83%80%E8%AA%9E,-0.146138,-1.4156,0.17128,0.406947,0.737467,-2.49404,0.640153,1.3035,0.840464,0.24205,-1.64304,0.0788368,0.238328,-2.76527,0.620663,0.944801,0.873306,-0.0977174,0.870688,0.181808,0.208717,-0.675836,1.12317,0.538535,-1.20821,-0.28217,-1.34983,0.395385,-1.02109,1.93974,1.57466,0.530564,-1.22733,-1.45162,0.188253,-1.46327,1.56127,0.0331006,1.10322,-0.793955,0.931105,0.196612,-1.13067,2.786,1.47724,-1.51398,-2.95423,-0.293043,-0.556206,-1.38831
%E8%87%AA%E8%A1%9B,-0.214143,-1.50205,0.263714,0.786271,0.608245,-1.5718,0.123878,1.30838,0.481428,0.0635729,-1.68402,0.598648,0.318785,-2.56618,0.297796,0.630241,0.804625,-0.456064,0.316187,0.203893,0.431928,-0.740179,0.565441,0.348338,-1.07629,-0.0521456,-1.20038,-0.0560489,-0.368379,1.42362,1.05049,1.02767,-1.01843,-1.2941,0.464483,-1.02805,0.596206,-0.328705,0.882085,-0.393021,0.992611,0.274638,-1.66426,2.29059,1.03199,-1.0354,-2.1519,-0.554796,-0.453113,-0.729856
%E3%83%99%E3%82%B8%E3%82%BF%E3%83%AA%E3%82%A2%E3%83%8B%E3%82%BA%E3%83%A0,-0.379003,-1.40192,0.635419,0.628434,0.347813,-2.10641,0.399929,1.37886,0.862521,0.184527,-1.56414,0.438451,0.401006,-2.49618,0.417433,0.693013,0.753709,-0.254009,0.613831,0.207126,0.163515,-0.737101,1.10014,0.430525,-1.08332,-0.176758,-1.31105,0.0442408,-0.64314,1.59138,1.32638,0.901541,-1.1602,-1.20572,0.324467,-1.08554,0.762673,-0.192537,0.917633,-0.451868,0.928536,0.119579,-1.41597,2.75511,1.30912,-1.13687,-2.72085,-0.489685,-0.623093,-0.994023
%C4%92,-0.610284,-1.50207,0.187174,0.279512,0.626429,-2.12334,0.688408,0.873076,0.475536,0.0551952,-1.28489,0.659331,0.173637,-3.05541,0.514821,0.696291,1.29836,-0.0474284,0.411295,0.109984,0.506145,-0.555794,1.27027,0.53512,-1.27088,-0.328961,-1.75449,0.0316614,-0.78611,0.937502,1.94727,0.514071,-1.53318,-1.28323,0.900812,-1.26413,1.31757,-0.383565,0.986745,-0.550565,1.30463,0.304789,-1.54049,2.94474,1.37219,-0.989887,-2.32096,-0.398358,-0.565613,-1.17941
Web%E3%82%B5%E3%83%BC%E3%83%90,-0.0625672,-1.43455,0.111034,0.368793,0.418503,-1.91122,0.621277,1.30447,0.792489,0.0613852,-1.17567,0.434903,0.575386,-2.49639,0.459152,0.705616,0.676418,-0.526263,0.729294,0.0684294,0.447004,-0.742756,0.823186,0.428884,-0.851406,0.154788,-1.33815,0.0713433,-0.719744,1.62111,1.58359,0.707637,-0.837679,-1.4318,0.224622,-1.07411,0.984691,-0.240604,1.11209,-0.486851,0.751373,0.0293902,-1.13773,2.0419,1.07726,-0.843682,-2.46599,-0.87792,-0.482459,-0.792891
%E3%82%A2%E3%83%A1%E3%83%AA%E3%82%AB%E5%90%88%E8%A1%86%E5%9B%BD%E3%81%AE%E6%AD%B4%E5%8F%B2,-0.12462,-1.47377,0.113043,0.497245,1.0308,-2.01553,0.480839,1.26328,0.914456,0.309222,-1.3988,0.151607,0.42503,-3.14681,0.337238,0.701588,1.14998,-0.234195,0.615591,0.0537901,0.691319,-0.710249,0.845002,0.238181,-1.4475,0.129811,-1.18051,-0.105292,-1.02926,1.53797,1.57728,0.74349,-1.14077,-0.879217,0.226053,-1.2575,0.937247,0.265134,1.29134,-0.275054,0.926295,0.487398,-1.24642,2.33971,1.18423,-1.08861,-2.56232,-0.64227,-0.653441,-1.19671
%E9%A6%96%E9%83%BD,-0.384839,-1.46706,0.225195,0.681537,0.601831,-2.48971,0.517341,1.24187,0.610517,0.395442,-1.70365,0.316604,0.13952,-2.79751,0.55308,0.660648,0.780659,-0.0423731,0.555631,-0.0136145,0.014111,-0.776859,1.24452,0.517021,-1.26595,-0.285945,-1.13077,0.482685,-0.840515,1.57742,1.41987,0.458147,-1.35667,-1.52697,0.295131,-1.46744,1.25643,-0.40919,0.991472,-0.776256,1.15572,0.360297,-1.45901,2.97578,1.5469,-1.62258,-2.64385,-0.23905,-0.384615,-1.33167
%E6%88%90%E6%96%87%E6%86%B2%E6%B3%95,-0.501995,-1.70287,0.474791,0.685161,0.190874,-1.83367,0.277457,1.24801,0.737403,0.21881,-1.76016,0.658513,0.309261,-2.24551,0.308062,0.429714,0.773809,-0.220243,0.285789,0.147235,0.319395,-0.823014,0.774508,0.481019,-1.17653,0.0709665,-1.06319,-0.132681,-0.410429,1.40543,1.13164,0.91818,-1.30678,-1.23138,0.49032,-1.20577,0.43863,-0.444595,0.542831,-0.435412,0.989259,0.39679,-1.65483,2.59497,1.12913,-0.902454,-2.18008,-0.467636,-0.486778,-0.702212
%E3%82%AB%E3%83%AA%E3%83%95%E3%82%A9%E3%83%AB%E3%83%8B%E3%82%A2%E5%B7%9E,-0.251535,-1.50898,0.0773267,0.424788,0.550438,-2.36608,0.620411,1.12092,0.894461,0.144435,-1.36632,0.250929,0.205082,-2.97896,0.447911,0.717018,0.885932,-0.234203,0.756172,-0.0422247,0.374094,-0.650614,0.979238,0.341507,-1.11012,-0.144128,-1.42659,0.115347,-1.01204,1.52751,1.56973,0.501515,-1.17897,-1.41246,0.221995,-1.35472,1.39482,-0.254635,1.1279,-0.586517,1.01554,0.0941511,-1.3785,2.55196,1.28202,-1.36226,-2.64698,-0.558165,-0.425534,-1.17458
4%E6%9C%889%E6%97%A5,-0.461336,-1.33037,0.189367,0.509291,0.548454,-1.66623,0.576641,1.2749,0.612265,0.0127264,-1.12607,0.707327,0.188238,-3.07612,0.383015,0.571541,1.06559,-0.177773,0.475325,0.338758,0.714346,-0.564881,0.904004,-0.0978764,-1.12002,-0.204941,-1.71443,-0.316228,-0.674559,1.02579,1.38815,0.85557,-1.09378,-0.84988,0.913244,-1.13441,0.978938,-0.620544,1.21067,-0.390536,1.21972,0.575051,-1.83254,2.32154,1.01134,-0.576766,-1.96735,-0.690459,-0.392121,-0.770298
%E3%82%A6%E3%83%AB%E3%82%B0%E3%82%A2%E3%82%A4,-0.347251,-1.41364,0.0253232,0.390082,0.542175,-2.15977,0.672276,1.20236,0.990053,0.0966811,-1.04654,0.123061,0.250071,-3.06932,0.457791,0.722815,0.935395,-0.323532,0.798073,0.02773,0.612816,-0.60354,0.845327,0.217019,-1.1924,0.0223459,-1.42318,-0.110721,-1.07976,1.40458,1.5187,0.634204,-1.03872,-1.27143,0.25353,-1.40431,1.04654,-0.202221,1.19882,-0.419355,0.993528,0.226737,-1.36412,2.38171,1.1253,-1.28286,-2.59772,-0.7584,-0.398612,-1.07856
UFC,-0.36255,-1.43145,0.47482,0.482484,0.462337,-2.3741,0.526042,1.42036,0.907952,0.175079,-1.40885,0.298342,0.354689,-2.68884,0.460597,0.771585,0.926309,-0.128095,0.728176,0.268034,0.304214,-0.742582,1.12757,0.480818,-1.26196,-0.191662,-1.44274,0.186537,-0.908102,1.73364,1.70349,0.795177,-1.21126,-1.31391,0.288059,-1.39949,1.18361,-0.258004,1.04745,-0.729319,0.997961,0.216046,-1.3268,2.86347,1.38747,-1.13745,-2.84802,-0.392369,-0.601515,-1.2273
%E3%82%A4%E3%83%B3%E3%82%AF%E3%83%AA%E3%83%A1%E3%83%B3%E3%82%BF%E3%83%AB%E3%82%B5%E3%83%BC%E3%83%81,-0.138831,-1.36492,0.344381,0.316405,0.537478,-2.30228,0.726873,1.33173,0.895826,0.266834,-1.51986,0.254843,0.603758,-2.79873,0.398268,0.861972,0.884491,-0.26095,0.748962,0.0195,0.323034,-0.732942,1.25111,0.380909,-1.04316,-0.106252,-1.30958,0.0716072,-0.903809,1.63602,1.63697,0.642899,-1.15747,-1.20453,0.156862,-1.24601,1.13897,-0.0143563,1.01351,-0.44295,0.978792,0.138706,-1.03826,2.58537,1.32804,-1.11889,-2.76147,-0.570725,-0.528521,-1.10935
1990%E5%B9%B4%E4%BB%A3,-0.0291852,-1.29779,-0.126424,0.528685,0.871644,-1.74729,0.324603,1.3573,0.55834,0.0141796,-1.26265,0.493888,0.0562651,-2.92308,0.474473,0.729121,1.01625,-0.0622382,0.601354,0.318086,0.588927,-0.603039,0.670841,0.340985,-1.22146,0.01948,-1.36741,0.0603864,-0.842444,1.53789,1.25114,0.766533,-1.23564,-1.11599,0.542146,-1.28808,1.00256,-0.165404,1.41833,-0.550431,1.02727,0.402189,-1.46842,2.18087,1.27389,-1.2506,-2.21036,-0.667993,-0.592569,-1.25103
%E3%83%94%E3%83%A5%E3%83%BC%E3%83%AA%E3%82%BF%E3%83%8B%E3%82%BA%E3%83%A0,-0.245713,-1.53308,0.364316,0.364472,0.632641,-2.19891,0.533766,1.26621,0.792852,0.252809,-1.72789,0.517093,0.44404,-2.85598,0.443389,0.834642,0.96028,-0.247436,0.548232,0.125009,0.281842,-0.797589,1.41708,0.601194,-1.22922,-0.259838,-1.48109,0.251872,-0.943068,1.75648,1.68266,0.581021,-1.37839,-1.37436,0.45074,-1.36204,1.43984,-0.166484,0.904313,-0.741145,1.1108,0.260151,-1.24361,3.01241,1.46851,-1.33838,-2.78039,-0.38926,-0.466393,-1.2783
%E4%B8%BB%E8%A6%81%E5%9B%BD%E9%A6%96%E8%84%B3%E4%BC%9A%E8%AD%B0,-0.272604,-1.37636,0.393844,0.437635,0.561622,-2.58222,0.557207,1.31583,0.836519,0.337813,-1.35324,0.00526265,0.217363,-2.88061,0.612137,0.804652,0.855664,-0.154891,0.800994,0.0930427,0.273833,-0.589813,1.00787,0.516152,-1.14843,-0.381522,-1.29024,0.415402,-1.04444,1.80452,1.46491,0.540607,-1.16802,-1.47279,0.0699658,-1.33958,1.50291,-0.0943058,1.18632,-0.668874,1.1004,0.166401,-1.24771,2.68419,1.47648,-1.4941,-2.78288,-0.361264,-0.364302,-1.34067
%E3%82%A2%E3%83%A1%E3%83%AA%E3%82%AB%E5%90%88%E8%A1%86%E5%9B%BD%E3%81%AE%E4%BA%BA%E7%A8%AE%E6%A7%8B%E6%88%90%E3%81%A8%E4%BD%BF%E7%94%A8%E8%A8%80%E8%AA%9E#,-0.114489,-1.43228,0.15657,0.438271,1.05202,-2.2617,0.667856,1.19306,0.686558,0.365596,-1.4871,0.130001,0.545258,-3.16452,0.414731,0.854225,1.10578,-0.0486256,0.776154,0.122668,0.69415,-0.626276,1.02606,0.330005,-1.52917,0.0579855,-1.31601,-0.0162682,-0.963791,1.69938,1.75967,0.592091,-1.24832,-1.01473,0.294518,-1.37177,0.996279,0.302923,1.35183,-0.312289,0.843349,0.554579,-1.12561,2.63599,1.23887,-1.09599,-2.67973,-0.439461,-0.750655,-1.15324
1803%E5%B9%B4,0.0328869,-1.46864,-0.0036703,0.591015,0.592525,-1.73851,0.595543,1.03657,0.739392,-0.097098,-1.10239,0.4103,0.275064,-2.6263,0.199223,0.815724,0.956503,-0.213179,0.610277,0.061128,0.413697,-0.654611,0.721409,0.29844,-1.16376,0.132712,-1.4483,-0.114279,-0.829822,1.69701,1.34214,0.745315,-0.960608,-1.0698,0.448492,-1.13583,0.878636,-0.280223,1.19632,-0.315712,0.960484,0.355893,-1.39784,2.14635,1.10349,-0.919401,-2.20783,-0.714984,-0.556792,-1.04282
%E3%82%A8%E3%82%A4%E3%83%96%E3%83%A9%E3%83%8F%E3%83%A0%E3%83%BB%E3%83%AA%E3%83%B3%E3%82%AB%E3%83%BC%E3%83%B3,0.0111716,-1.37081,0.129365,0.370789,0.667139,-2.25712,0.43833,1.21747,0.952935,0.206603,-1.52582,0.0661704,0.533859,-2.74662,0.450557,0.697283,0.678642,-0.381068,0.845362,0.0675052,0.41296,-0.64418,1.06219,0.563714,-1.20628,-0.128049,-1.22087,0.290854,-0.99665,1.85234,1.42093,0.730337,-1.09747,-1.37182,0.0550923,-1.35556,1.35075,0.101342,1.184,-0.478223,0.737464,0.306935,-1.13334,2.50161,1.33056,-1.31856,-2.88186,-0.576066,-0.495935,-1.16505
Lotus_Symphony,-0.293531,-1.5134,0.227234,0.337605,0.411849,-2.12661,0.641463,1.28236,0.761322,0.00778219,-1.45436,0.497973,0.27107,-2.77087,0.287175,0.67893,1.11397,-0.224549,0.398236,0.164741,0.287066,-0.750558,1.16724,0.48274,-1.27946,-0.360097,-1.64069,0.106944,-0.858543,1.51508,1.97617,0.568711,-1.38115,-1.3924,0.467047,-1.39775,1.47893,-0.504295,0.828315,-0.873036,1.35459,0.173399,-1.36736,2.87396,1.36222,-0.943909,-2.66926,-0.343037,-0.467442,-1.37802
%E3%83%AD%E3%83%8A%E3%83%AB%E3%83%89%E3%83%BB%E3%83%AC%E3%83%BC%E3%82%AC%E3%83%B3_(%E7%A9%BA%E6%AF%8D),-0.325926,-1.25286,0.101293,0.525049,0.501435,-2.52258,0.522538,1.28391,0.886991,0.300054,-1.23226,-0.0600641,0.195239,-3.01944,0.641352,0.480731,0.605418,-0.312002,0.931089,-0.123327,0.398511,-0.496504,0.96044,0.321516,-1.16478,0.0139334,-1.31144,0.358667,-0.87088,1.47722,1.15697,0.610415,-1.07129,-1.48848,-0.0394173,-1.50363,1.26181,-0.200692,1.2553,-0.457354,0.746902,0.181492,-1.26878,2.52942,1.29146,-1.36787,-2.54451,-0.520689,-0.38359,-1.07557
